SVM-light Version V6.02
0 # kernel type
3 # kernel parameter -d 
1 # kernel parameter -g 
1 # kernel parameter -s 
1 # kernel parameter -r 
empty# kernel parameter -u 
60 # highest feature index 
1323 # number of training documents 
577 # number of support vectors plus 1 
1.9516214 # threshold b, each following line is a SV (starting with alpha*y)
-0.00033705318005756778687934116511826 1:0 2:4 3:0 4:8 5:4 6:8 7:4 8:0 9:0 10:16 11:4 12:8 13:20 14:4 15:4 16:4 17:4 18:4 19:0 20:4 21:4 22:0 23:4 24:0 25:0 26:4 27:12 28:0 29:0 30:12 31:0 32:0 33:36 34:0 35:0 36:16 37:4 38:4 39:4 40:0 41:7.46 42:2.8199999 43:3.4300001 44:4.8400002 45:4.0300002 46:8.4700003 47:2.8199999 48:4.23 49:2.8199999 50:10.89 51:0.60000002 52:2.4200001 53:7.8600001 54:3.23 55:5.8499999 56:9.6800003 57:6.4499998 58:7.2600002 59:4.0300002 60:0.81 #
-0.00033705318005756778687934116511826 1:16 2:0 3:0 4:0 5:8 6:0 7:4 8:0 9:0 10:28 11:4 12:0 13:8 14:4 15:4 16:12 17:0 18:4 19:4 20:4 21:12 22:0 23:0 24:4 25:0 26:4 27:0 28:4 29:8 30:4 31:8 32:4 33:4 34:8 35:8 36:4 37:4 38:16 39:8 40:0 41:5.6199999 42:1.27 43:7.79 44:5.25 45:4.3499999 46:9.7799997 47:2.72 48:5.25 49:3.8 50:8.3299999 51:2.3599999 52:4.5300002 53:6.1599998 54:2.72 55:3.99 56:8.3299999 57:5.0700002 58:5.6199999 59:3.0799999 60:3.99 #
-0.00033705318005756778687934116511826 1:8 2:4 3:0 4:0 5:12 6:4 7:8 8:4 9:4 10:28 11:4 12:4 13:0 14:0 15:0 16:4 17:12 18:4 19:0 20:0 21:4 22:8 23:8 24:4 25:8 26:0 27:4 28:12 29:4 30:0 31:0 32:4 33:4 34:4 35:4 36:0 37:4 38:12 39:0 40:16 41:1.59 42:3.1700001 43:5.5599999 44:8.7299995 45:7.1399999 46:3.97 47:0.79000002 48:5.5599999 49:11.9 50:7.1399999 51:3.1700001 52:6.3499999 53:2.3800001 54:2.3800001 55:7.1399999 56:6.3499999 57:6.3499999 58:3.1700001 59:0.79000002 60:6.3499999 #
-0.00033705318005756778687934116511826 1:0 2:0 3:0 4:8 5:0 6:12 7:4 8:8 9:4 10:8 11:8 12:8 13:4 14:0 15:4 16:12 17:4 18:8 19:4 20:4 21:12 22:0 23:12 24:4 25:4 26:12 27:0 28:4 29:12 30:16 31:0 32:0 33:4 34:0 35:0 36:0 37:8 38:8 39:0 40:4 41:6.3099999 42:1.67 43:4.8200002 44:4.8200002 45:4.27 46:7.6100001 47:3.3399999 48:6.3099999 49:6.6799998 50:9.8299999 51:2.97 52:4.4499998 53:5.0100002 54:2.78 55:3.71 56:7.4200001 57:5.1900001 58:7.0500002 59:1.11 60:4.6399999 #
-0.00033705318005756778687934116511826 1:20 2:0 3:0 4:0 5:0 6:8 7:0 8:0 9:0 10:0 11:4 12:0 13:4 14:0 15:4 16:24 17:32 18:4 19:0 20:0 21:8 22:8 23:12 24:12 25:4 26:0 27:0 28:0 29:16 30:12 31:0 32:4 33:0 34:8 35:0 36:4 37:0 38:8 39:0 40:4 41:7.8600001 42:0.85000002 43:8.5500002 44:6.1500001 45:4.4400001 46:2.5599999 47:0.68000001 48:8.0299997 49:5.3000002 50:15.04 51:1.37 52:5.8099999 53:3.4200001 54:4.27 55:3.76 56:7.3499999 57:3.5899999 58:7.8600001 59:1.2 60:1.88 #
0.0023593722604029745623654967801031 1:0 2:4 3:12 4:0 5:4 6:4 7:0 8:16 9:8 10:16 11:4 12:4 13:0 14:0 15:8 16:0 17:0 18:8 19:4 20:8 21:12 22:0 23:4 24:12 25:0 26:4 27:0 28:8 29:16 30:16 31:0 32:8 33:0 34:4 35:8 36:4 37:4 38:0 39:0 40:0 41:6.1900001 42:2.96 43:5.79 44:5.6500001 45:5.79 46:6.0599999 47:3.23 48:4.3099999 49:6.0599999 50:9.5600004 51:1.75 52:6.1900001 53:4.8499999 54:4.1700001 55:4.5799999 56:5.9200001 57:5.1100001 58:5.25 59:2.1500001 60:4.4400001 #
0.0023593722604029745623654967801031 1:4 2:0 3:0 4:12 5:0 6:0 7:0 8:0 9:0 10:8 11:4 12:4 13:8 14:4 15:28 16:20 17:0 18:8 19:0 20:0 21:4 22:0 23:0 24:8 25:8 26:16 27:0 28:4 29:8 30:20 31:0 32:4 33:0 34:0 35:0 36:8 37:12 38:4 39:0 40:4 41:3.3299999 42:0.47999999 43:5.2399998 44:6.6700001 45:3.8099999 46:9.0500002 47:1.9 48:10.48 49:7.6199999 50:10 51:1.9 52:3.8099999 53:3.8099999 54:2.3800001 55:7.1399999 56:6.1900001 57:3.8099999 58:6.1900001 59:0.94999999 60:5.2399998 #
-0.00033705318005756778687934116511826 1:8 2:0 3:4 4:16 5:4 6:8 7:0 8:4 9:4 10:12 11:8 12:4 13:4 14:4 15:0 16:0 17:8 18:8 19:4 20:0 21:4 22:0 23:4 24:4 25:8 26:12 27:0 28:0 29:16 30:0 31:0 32:16 33:0 34:4 35:12 36:8 37:8 38:4 39:0 40:0 41:8.5900002 42:1.04 43:5.21 44:8.3299999 45:4.1700001 46:4.6900001 47:2.0799999 48:4.4299998 49:7.0300002 50:7.29 51:0.77999997 52:8.0699997 53:4.1700001 54:5.9899998 55:2.8599999 56:9.3800001 57:5.9899998 58:7.0300002 59:0.25999999 60:2.5999999 #
-0.00033705318005756778687934116511826 1:8 2:8 3:4 4:0 5:4 6:0 7:0 8:12 9:0 10:12 11:4 12:8 13:0 14:0 15:8 16:8 17:8 18:12 19:0 20:4 21:8 22:0 23:8 24:4 25:8 26:12 27:8 28:12 29:8 30:4 31:0 32:4 33:0 34:8 35:8 36:0 37:0 38:4 39:4 40:0 41:6.1999998 42:1.63 43:5.71 44:4.73 45:5.3800001 46:9.79 47:4.4000001 48:5.2199998 49:5.0599999 50:6.3600001 51:4.0799999 52:3.9200001 53:6.04 54:5.0599999 55:3.75 56:5.2199998 57:5.2199998 58:7.0100002 59:1.3099999 60:3.9200001 #
0.0023593722604029745623654967801031 1:16 2:4 3:8 4:0 5:0 6:0 7:0 8:0 9:4 10:12 11:4 12:0 13:4 14:4 15:24 16:0 17:0 18:16 19:4 20:0 21:4 22:0 23:4 24:16 25:0 26:16 27:0 28:0 29:12 30:8 31:0 32:4 33:12 34:12 35:4 36:4 37:4 38:0 39:0 40:0 41:8.75 42:0.31999999 43:5.1599998 44:11.59 45:3.9000001 46:6.1100001 47:1.16 48:3.27 49:7.6900001 50:9.8000002 51:2.53 52:3.48 53:5.8000002 54:4.9499998 55:5.27 56:5.3699999 57:5.27 58:7.48 59:0.41999999 60:1.6900001 #
-0.00033705318005756778687934116511826 1:0 2:8 3:0 4:0 5:0 6:0 7:4 8:0 9:4 10:20 11:4 12:0 13:4 14:8 15:16 16:12 17:0 18:8 19:8 20:4 21:0 22:0 23:4 24:12 25:0 26:4 27:0 28:4 29:20 30:12 31:4 32:0 33:0 34:8 35:8 36:8 37:4 38:0 39:4 40:8 41:5.9899998 42:0.25999999 43:6.77 44:7.8099999 45:5.4699998 46:7.29 47:3.3900001 48:5.9899998 49:8.0699997 50:10.94 51:1.8200001 52:4.1700001 53:3.6500001 54:3.6500001 55:5.4699998 56:4.4299998 57:5.9899998 58:5.73 59:0.77999997 60:2.3399999 #
-0.00033705318005756778687934116511826 1:16 2:4 3:4 4:0 5:0 6:0 7:4 8:0 9:8 10:28 11:8 12:4 13:4 14:0 15:12 16:0 17:0 18:8 19:0 20:0 21:0 22:0 23:16 24:0 25:0 26:4 27:0 28:0 29:8 30:12 31:0 32:0 33:16 34:8 35:32 36:0 37:0 38:4 39:0 40:0 41:3.8 42:11.96 43:1.09 44:7.6100001 45:3.26 46:14.13 47:2.1700001 48:3.8 49:5.98 50:5.4299998 51:0 52:2.72 53:5.98 54:6.52 55:8.6999998 56:5.4299998 57:5.4299998 58:2.1700001 59:1.63 60:2.1700001 #
-0.00033705318005756778687934116511826 1:24 2:0 3:4 4:0 5:0 6:8 7:0 8:0 9:0 10:20 11:4 12:0 13:4 14:0 15:28 16:0 17:0 18:4 19:4 20:0 21:4 22:0 23:0 24:12 25:0 26:8 27:4 28:12 29:0 30:12 31:0 32:0 33:0 34:4 35:12 36:12 37:8 38:4 39:0 40:8 41:13.26 42:1.38 43:4.1399999 44:6.6300001 45:3.3099999 46:7.73 47:1.1 48:5.8000002 49:5.8000002 50:10.22 51:3.5899999 52:3.5899999 53:4.1399999 54:4.6999998 55:4.4200001 56:6.9099998 57:6.0799999 58:3.5899999 59:1.38 60:2.21 #
-0.00033705318005756778687934116511826 1:0 2:0 3:0 4:0 5:0 6:8 7:0 8:0 9:0 10:20 11:4 12:0 13:28 14:8 15:24 16:0 17:4 18:4 19:0 20:0 21:0 22:4 23:12 24:8 25:8 26:8 27:0 28:4 29:4 30:12 31:0 32:0 33:12 34:4 35:4 36:0 37:12 38:4 39:0 40:4 41:9.0500002 42:1.62 43:5.3899999 44:5.5999999 45:2.9100001 46:9.0500002 47:2.1600001 48:6.6799998 49:6.0300002 50:10.45 51:1.62 52:3.6600001 53:4.6300001 54:4.8499999 55:5.1700001 56:5.8200002 57:5.0599999 58:8.4099998 59:0.64999998 60:1.1900001 #
-0.00033705318005756778687934116511826 1:16 2:0 3:0 4:0 5:0 6:16 7:0 8:4 9:4 10:12 11:4 12:0 13:4 14:8 15:4 16:8 17:4 18:8 19:4 20:4 21:8 22:0 23:4 24:8 25:4 26:8 27:0 28:0 29:28 30:8 31:4 32:4 33:4 34:0 35:0 36:4 37:4 38:8 39:4 40:0 41:8.6999998 42:1.98 43:2.3699999 44:6.3200002 45:3.95 46:9.4899998 47:2.3699999 48:6.7199998 49:5.5300002 50:7.9099998 51:0.79000002 52:5.5300002 53:4.3499999 54:3.1600001 55:3.1600001 56:9.4899998 57:4.7399998 58:9.0900002 59:1.58 60:2.77 #
0.0023593722604029745623654967801031 1:8 2:8 3:12 4:0 5:8 6:4 7:0 8:4 9:4 10:4 11:4 12:0 13:4 14:0 15:0 16:12 17:12 18:16 19:0 20:0 21:12 22:4 23:0 24:0 25:0 26:16 27:4 28:12 29:0 30:0 31:4 32:4 33:24 34:4 35:0 36:8 37:0 38:4 39:0 40:4 41:5.8899999 42:2.5799999 43:3.8599999 44:6.2600002 45:3.04 46:6.8099999 47:3.22 48:2.9400001 49:5.1500001 50:7.3600001 51:2.5799999 52:4.5999999 53:10.21 54:5.0599999 55:3.96 56:9.1099997 57:4.5999999 58:5.98 59:0.55000001 60:6.2600002 #
0.0023593722604029745623654967801031 1:20 2:0 3:4 4:8 5:4 6:0 7:0 8:8 9:12 10:8 11:4 12:8 13:0 14:0 15:0 16:8 17:12 18:4 19:0 20:0 21:4 22:0 23:20 24:4 25:8 26:4 27:0 28:4 29:16 30:4 31:4 32:8 33:0 34:0 35:8 36:4 37:0 38:8 39:0 40:4 41:6.5799999 42:1.37 43:6.3000002 44:8.6300001 45:3.7 46:6.3000002 47:1.1 48:7.2600002 49:7.1199999 50:10 51:2.47 52:3.5599999 53:5.0700002 54:3.01 55:6.5799999 56:6.9899998 57:4.9299998 58:6.4400001 59:0.27000001 60:2.3299999 #
0.0023593722604029745623654967801031 1:8 2:4 3:0 4:0 5:8 6:8 7:4 8:8 9:4 10:16 11:4 12:0 13:0 14:0 15:0 16:16 17:8 18:8 19:0 20:4 21:4 22:4 23:4 24:8 25:8 26:4 27:4 28:0 29:4 30:4 31:4 32:4 33:8 34:8 35:0 36:16 37:4 38:8 39:4 40:0 41:7.1100001 42:1.0700001 43:4.6199999 44:6.8699999 45:3.55 46:6.1599998 47:1.54 48:7.1100001 49:7.9400001 50:11.02 51:2.01 52:4.1500001 53:2.8399999 54:4.8600001 55:4.6199999 56:9 57:5.4499998 58:6.4000001 59:0.36000001 60:3.3199999 #
0.0023593722604029745623654967801031 1:12 2:0 3:8 4:8 5:8 6:0 7:0 8:0 9:4 10:4 11:4 12:4 13:0 14:4 15:4 16:24 17:4 18:8 19:0 20:4 21:8 22:0 23:0 24:4 25:4 26:0 27:0 28:0 29:8 30:0 31:0 32:8 33:12 34:0 35:16 36:16 37:8 38:8 39:4 40:4 41:5.0300002 42:0 43:4.4699998 44:3.9100001 45:3.9100001 46:3.3499999 47:2.79 48:6.1500001 49:7.8200002 50:11.17 51:1.6799999 52:5.5900002 53:11.73 54:5.5900002 55:3.9100001 56:8.3800001 57:6.1500001 58:5.0300002 59:2.23 60:1.12 #
0.0023593722604029745623654967801031 1:12 2:0 3:0 4:0 5:4 6:0 7:0 8:4 9:4 10:16 11:4 12:8 13:4 14:4 15:0 16:12 17:12 18:4 19:4 20:8 21:8 22:0 23:8 24:16 25:0 26:4 27:0 28:0 29:4 30:8 31:4 32:20 33:0 34:4 35:0 36:12 37:4 38:8 39:0 40:0 41:5.6999998 42:3.29 43:7.8899999 44:9.6499996 45:2.6300001 46:4.6100001 47:1.97 48:4.8200002 49:8.3299999 50:10.96 51:1.54 52:5.2600002 53:2.6300001 54:3.0699999 55:3.95 56:9.4300003 57:4.3899999 58:5.2600002 59:1.1 60:3.51 #
-0.00033705318005756778687934116511826 1:8 2:0 3:0 4:0 5:16 6:0 7:0 8:12 9:8 10:16 11:4 12:0 13:0 14:0 15:0 16:20 17:8 18:4 19:0 20:4 21:16 22:4 23:8 24:4 25:8 26:4 27:0 28:0 29:0 30:4 31:0 32:8 33:8 34:0 35:0 36:20 37:4 38:4 39:4 40:4 41:5.9000001 42:2.6500001 43:6.1900001 44:5.3099999 45:6.1900001 46:9.1400003 47:2.3599999 48:6.7800002 49:4.7199998 50:9.1400003 51:1.1799999 52:5.0100002 53:5.5999999 54:3.24 55:3.54 56:6.7800002 57:4.7199998 58:4.4200001 59:0.58999997 60:6.4899998 #
-0.00033705318005756778687934116511826 1:0 2:8 3:4 4:8 5:12 6:8 7:4 8:12 9:8 10:8 11:4 12:0 13:4 14:0 15:0 16:4 17:0 18:12 19:4 20:0 21:12 22:4 23:8 24:12 25:0 26:8 27:0 28:0 29:4 30:8 31:0 32:0 33:0 34:0 35:0 36:32 37:8 38:4 39:0 40:0 41:5.4099998 42:3.26 43:6.0100002 44:7.3800001 45:3.52 46:4.29 47:2.6600001 48:5.0599999 49:8.5799999 50:11.24 51:2.3199999 52:4.1199999 53:5.6700001 54:4.1199999 55:3.8599999 56:6.0900002 57:5.0599999 58:7.1199999 59:1.2 60:3 #
-0.00033705318005756778687934116511826 1:24 2:0 3:4 4:12 5:8 6:4 7:0 8:0 9:0 10:8 11:4 12:0 13:8 14:4 15:0 16:12 17:4 18:8 19:0 20:0 21:4 22:0 23:8 24:4 25:0 26:16 27:0 28:4 29:0 30:12 31:0 32:0 33:8 34:8 35:4 36:16 37:8 38:8 39:0 40:0 41:8.6800003 42:2.23 43:4.4499998 44:8.3199997 45:3.1700001 46:7.27 47:3.4000001 48:2.7 49:5.2800002 50:11.02 51:1.52 52:3.6300001 53:5.98 54:5.5100002 55:6.21 56:9.0299997 57:4.2199998 58:4.4499998 59:1.0599999 60:1.88 #
-0.00033705318005756778687934116511826 1:0 2:0 3:16 4:8 5:0 6:0 7:0 8:24 9:0 10:4 11:8 12:8 13:4 14:0 15:0 16:16 17:8 18:0 19:4 20:0 21:8 22:0 23:0 24:8 25:4 26:0 27:0 28:4 29:12 30:20 31:0 32:12 33:0 34:4 35:8 36:8 37:4 38:0 39:0 40:8 41:5.1300001 42:0.85000002 43:9.3999996 44:7.6900001 45:5.1300001 46:5.98 47:1.71 48:11.97 49:6.8400002 50:11.11 51:1.71 52:6.8400002 53:0.85000002 54:7.6900001 55:3.4200001 56:5.1300001 57:4.27 58:2.5599999 59:0.85000002 60:0.85000002 #
-0.00033705318005756778687934116511826 1:0 2:0 3:8 4:4 5:4 6:0 7:0 8:12 9:4 10:12 11:4 12:0 13:4 14:8 15:4 16:12 17:16 18:4 19:0 20:4 21:8 22:0 23:4 24:8 25:0 26:12 27:4 28:8 29:12 30:8 31:0 32:12 33:0 34:0 35:4 36:8 37:0 38:4 39:0 40:8 41:3.1099999 42:1.49 43:6.5999999 44:6.3499999 45:5.73 46:2.3699999 47:2.3699999 48:7.2199998 49:7.8499999 50:13.45 51:2.1199999 52:8.2200003 53:3.74 54:3.24 55:4.1100001 56:6.3499999 57:5.73 58:4.48 59:1.62 60:3.8599999 #
0.0012257599876806728016187530982961 1:0 2:0 3:0 4:4 5:0 6:8 7:0 8:0 9:0 10:44 11:4 12:0 13:28 14:0 15:8 16:4 17:0 18:0 19:0 20:0 21:4 22:0 23:4 24:12 25:0 26:4 27:4 28:0 29:4 30:4 31:0 32:0 33:16 34:8 35:24 36:4 37:4 38:8 39:0 40:0 41:12.39 42:2.04 43:4.8099999 44:9.1800003 45:2.3299999 46:7.8699999 47:2.48 48:1.17 49:2.3299999 50:12.54 51:1.17 52:1.6 53:7.29 54:5.8299999 55:9.3299999 56:4.6599998 57:3.9400001 58:4.3699999 59:1.75 60:2.9200001 #
-0.00017109612355865194688320229943201 1:16 2:0 3:12 4:4 5:0 6:0 7:4 8:0 9:12 10:20 11:4 12:4 13:8 14:0 15:0 16:0 17:8 18:4 19:0 20:4 21:0 22:0 23:0 24:8 25:0 26:4 27:0 28:16 29:8 30:12 31:0 32:0 33:0 34:24 35:4 36:12 37:4 38:8 39:0 40:0 41:10.26 42:5.1300001 43:2.5599999 44:6.4099998 45:2.5599999 46:5.1300001 47:1.28 48:6.4099998 49:6.4099998 50:10.26 51:1.28 52:5.1300001 53:5.1300001 54:5.1300001 55:6.4099998 56:6.4099998 57:2.5599999 58:8.9700003 59:0 60:2.5599999 #
0.0023593722604029745623654967801031 1:16 2:4 3:0 4:4 5:0 6:16 7:0 8:0 9:0 10:4 11:4 12:0 13:8 14:4 15:16 16:8 17:4 18:8 19:4 20:0 21:8 22:0 23:16 24:20 25:4 26:0 27:0 28:12 29:4 30:8 31:8 32:4 33:4 34:4 35:0 36:4 37:0 38:0 39:4 40:0 41:7.1399999 42:1.13 43:6.9200001 44:8.2799997 45:4.54 46:5.9000001 47:2.27 48:5.0999999 49:5.3299999 50:10.2 51:2.72 52:4.6500001 53:4.6500001 54:4.4200001 55:4.54 56:7.48 57:5.5599999 58:5.2199998 59:1.02 60:2.95 #
0.0023593722604029745623654967801031 1:28 2:0 3:4 4:4 5:0 6:16 7:0 8:0 9:0 10:20 11:4 12:0 13:8 14:0 15:8 16:0 17:4 18:4 19:0 20:0 21:4 22:4 23:4 24:12 25:4 26:4 27:4 28:4 29:8 30:0 31:0 32:4 33:8 34:4 35:8 36:12 37:0 38:4 39:8 40:4 41:9.5100002 42:1.01 43:5.6700001 44:6.6799998 45:3.24 46:5.6700001 47:2.8299999 48:3.24 49:3.4400001 50:12.96 51:1.21 52:3.4400001 53:4.6599998 54:3.24 55:7.29 56:7.4899998 57:4.4499998 58:7.0900002 59:1.42 60:5.4699998 #
-0.00033705318005756778687934116511826 1:16 2:4 3:4 4:0 5:4 6:4 7:4 8:4 9:0 10:12 11:8 12:0 13:4 14:8 15:12 16:0 17:4 18:4 19:8 20:0 21:4 22:0 23:56 24:36 25:0 26:0 27:0 28:0 29:0 30:0 31:0 32:4 33:0 34:0 35:0 36:0 37:0 38:0 39:0 40:0 41:3.02 42:2.72 43:6.04 44:9.6700001 45:2.72 46:4.5300002 47:1.51 48:4.5300002 49:6.9499998 50:14.2 51:1.8099999 52:3.3199999 53:3.9300001 54:6.6500001 55:6.9499998 56:7.5500002 57:4.8299999 58:6.04 59:0 60:3.02 #
-0.00033705318005756778687934116511826 1:8 2:0 3:4 4:8 5:4 6:0 7:4 8:8 9:0 10:12 11:4 12:4 13:8 14:12 15:4 16:8 17:4 18:8 19:0 20:0 21:8 22:0 23:16 24:60 25:0 26:0 27:0 28:4 29:0 30:0 31:0 32:0 33:0 34:0 35:0 36:4 37:0 38:8 39:0 40:0 41:5.23 42:2.03 43:8.1400003 44:8.1400003 45:4.3600001 46:4.6500001 47:1.45 48:8.1400003 49:8.7200003 50:12.5 51:2.9100001 52:5.23 53:4.0700002 54:1.16 55:4.6500001 56:5.8099999 57:2.9100001 58:6.4000001 59:0.28999999 60:3.2 #
-0.00033705318005756778687934116511826 1:28 2:4 3:0 4:0 5:0 6:4 7:0 8:0 9:0 10:24 11:4 12:0 13:16 14:4 15:4 16:0 17:8 18:4 19:0 20:0 21:28 22:0 23:0 24:20 25:0 26:8 27:0 28:4 29:0 30:16 31:4 32:0 33:4 34:0 35:8 36:4 37:4 38:0 39:0 40:0 41:5.6700001 42:6.6700001 43:5.6700001 44:11.33 45:2.6700001 46:6.3299999 47:3.3299999 48:3 49:2.3299999 50:8.3299999 51:2.6700001 52:3.6700001 53:6.3299999 54:5 55:5.3299999 56:6.3299999 57:6.6700001 58:6 59:0.67000002 60:2 #
-0.00033705318005756778687934116511826 1:32 2:0 3:0 4:0 5:0 6:8 7:0 8:0 9:0 10:24 11:4 12:0 13:20 14:0 15:12 16:0 17:0 18:0 19:0 20:0 21:4 22:8 23:4 24:8 25:4 26:4 27:4 28:0 29:0 30:0 31:0 32:0 33:20 34:0 35:12 36:12 37:4 38:12 39:0 40:4 41:9.4200001 42:1.16 43:4.96 44:4.79 45:4.3000002 46:6.7800002 47:3.3099999 48:1.49 49:1.8200001 50:12.89 51:0.82999998 52:2.98 53:8.6000004 54:3.8 55:8.4300003 56:6.1199999 57:5.29 58:7.27 59:2.6400001 60:3.1400001 #
-0.00033705318005756778687934116511826 1:40 2:0 3:0 4:0 5:0 6:16 7:0 8:0 9:0 10:0 11:4 12:0 13:4 14:0 15:12 16:8 17:4 18:8 19:4 20:0 21:4 22:0 23:12 24:16 25:4 26:0 27:0 28:8 29:0 30:4 31:4 32:0 33:8 34:4 35:8 36:12 37:4 38:4 39:0 40:8 41:4.8200002 42:2.28 43:4.4200001 44:6.5599999 45:4.8200002 46:3.8800001 47:2.54 48:5.2199998 49:6.02 50:15.26 51:2.8099999 52:5.3499999 53:2.95 54:5.3499999 55:5.3499999 56:7.7600002 57:5.6199999 58:5.7600002 59:1.0700001 60:2.1400001 #
0.0023593722604029745623654967801031 1:12 2:4 3:0 4:4 5:8 6:0 7:0 8:24 9:4 10:12 11:8 12:0 13:4 14:4 15:0 16:8 17:8 18:0 19:0 20:0 21:0 22:8 23:4 24:0 25:0 26:8 27:4 28:0 29:4 30:0 31:4 32:4 33:0 34:8 35:12 36:12 37:20 38:8 39:0 40:4 41:5.1999998 42:0 43:7.5100002 44:6.9400001 45:12.72 46:9.25 47:4.6199999 48:1.73 49:8.0900002 50:3.47 51:2.3099999 52:5.1999998 53:1.73 54:6.3600001 55:5.7800002 56:10.4 57:4.6199999 58:1.16 59:0 60:2.8900001 #
0.0023593722604029745623654967801031 1:0 2:0 3:0 4:8 5:0 6:0 7:4 8:12 9:12 10:20 11:4 12:4 13:4 14:8 15:0 16:16 17:0 18:4 19:0 20:4 21:4 22:16 23:0 24:0 25:4 26:8 27:4 28:4 29:16 30:8 31:0 32:8 33:8 34:4 35:0 36:0 37:4 38:0 39:8 40:4 41:3.6900001 42:1.23 43:6.5599999 44:8.1999998 45:4.9200001 46:5.3299999 47:3.28 48:5.7399998 49:8.6099997 50:8.1999998 51:3.28 52:5.7399998 53:3.6900001 54:6.5599999 55:2.46 56:5.7399998 57:3.6900001 58:6.5599999 59:1.64 60:4.9200001 #
0.0023593722604029745623654967801031 1:4 2:0 3:4 4:0 5:4 6:0 7:4 8:4 9:4 10:12 11:8 12:16 13:0 14:4 15:0 16:12 17:4 18:8 19:4 20:8 21:12 22:0 23:0 24:4 25:8 26:4 27:0 28:8 29:8 30:8 31:0 32:4 33:0 34:4 35:4 36:16 37:8 38:4 39:4 40:4 41:7.4099998 42:2.6900001 43:5.2199998 44:4.5500002 45:4.8800001 46:7.0700002 47:1.85 48:7.0700002 49:6.4000001 50:8.5900002 51:2.02 52:5.8899999 53:5.5599999 54:4.5500002 55:3.3699999 56:7.5799999 57:4.3800001 58:6.73 59:1.35 60:2.8599999 #
-0.00033705318005756778687934116511826 1:16 2:0 3:0 4:0 5:4 6:4 7:4 8:4 9:0 10:32 11:4 12:0 13:8 14:0 15:0 16:16 17:0 18:0 19:0 20:8 21:4 22:0 23:0 24:0 25:4 26:4 27:0 28:0 29:24 30:8 31:0 32:4 33:0 34:4 35:12 36:28 37:4 38:4 39:0 40:0 41:5 42:1.92 43:7.3099999 44:6.9200001 45:6.1500001 46:3.46 47:1.54 48:5.77 49:8.0799999 50:6.9200001 51:1.92 52:5.77 53:3.46 54:2.3099999 55:6.1500001 56:7.3099999 57:5 58:8.8500004 59:1.54 60:4.6199999 #
-0.00033705318005756778687934116511826 1:4 2:12 3:0 4:0 5:0 6:16 7:0 8:4 9:4 10:28 11:8 12:4 13:0 14:0 15:4 16:12 17:4 18:0 19:0 20:0 21:0 22:4 23:0 24:8 25:0 26:20 27:4 28:12 29:4 30:0 31:0 32:4 33:4 34:8 35:0 36:0 37:12 38:4 39:8 40:8 41:4.1999998 42:0.77999997 43:3.71 44:6.2399998 45:3.1199999 46:4.5900002 47:1.66 48:5.27 49:8.1999998 50:6.0500002 51:0.38999999 52:3.4100001 53:13.46 54:4.29 55:5.1700001 56:9.0699997 57:11.02 58:6.2399998 59:0.88 60:2.24 #
-0.00033705318005756778687934116511826 1:0 2:12 3:4 4:8 5:0 6:4 7:4 8:0 9:4 10:4 11:4 12:4 13:8 14:0 15:12 16:4 17:4 18:20 19:0 20:4 21:4 22:0 23:12 24:8 25:4 26:12 27:0 28:12 29:4 30:8 31:0 32:0 33:8 34:0 35:8 36:4 37:4 38:4 39:8 40:0 41:7.75 42:2.73 43:6.1599998 44:6.98 45:2.79 46:9.3999996 47:2.8599999 48:4.8299999 49:4.7600002 50:7.4299998 51:2.29 52:2.98 53:5.02 54:2.5999999 55:6.3499999 56:7.3000002 57:4.4400001 58:9.3999996 59:2.5999999 60:1.33 #
-0.00017002139133590879124802164312769 1:8 2:0 3:12 4:8 5:4 6:0 7:0 8:4 9:12 10:16 11:4 12:4 13:0 14:8 15:4 16:8 17:0 18:8 19:0 20:0 21:0 22:0 23:0 24:0 25:4 26:16 27:4 28:4 29:32 30:4 31:0 32:12 33:4 34:4 35:8 36:4 37:0 38:4 39:0 40:0 41:7.2199998 42:1.27 43:5.6900001 44:6.96 45:4.2399998 46:3.6500001 47:1.53 48:7.3000002 49:7.1300001 50:10.95 51:1.95 52:5.3499999 53:3.8199999 54:3.4000001 55:4.4099998 56:9.6800003 57:5.8600001 58:6.3699999 59:0.58999997 60:2.6300001 #
-0.00033705318005756778687934116511826 1:4 2:0 3:0 4:16 5:8 6:0 7:0 8:0 9:12 10:8 11:4 12:0 13:8 14:0 15:0 16:20 17:4 18:12 19:0 20:4 21:4 22:0 23:0 24:4 25:4 26:8 27:0 28:4 29:4 30:0 31:0 32:0 33:16 34:4 35:20 36:16 37:16 38:0 39:0 40:0 41:6.8299999 42:1.08 43:6.4699998 44:8.6300001 45:3.5999999 46:2.1600001 47:1.08 48:7.1900001 49:8.9899998 50:9.71 51:2.52 52:3.96 53:3.5999999 54:3.5999999 55:3.96 56:13.67 57:3.24 58:6.4699998 59:0 60:3.24 #
0.0023593722604029745623654967801031 1:12 2:0 3:0 4:4 5:4 6:16 7:0 8:4 9:0 10:4 11:4 12:0 13:16 14:4 15:16 16:8 17:0 18:8 19:0 20:0 21:24 22:0 23:8 24:16 25:0 26:12 27:0 28:4 29:4 30:4 31:0 32:0 33:4 34:0 35:4 36:20 37:0 38:0 39:0 40:0 41:10.84 42:5.4200001 43:4.4299998 44:4.4299998 45:5.4200001 46:7.3899999 47:3.9400001 48:2.96 49:5.9099998 50:7.3899999 51:0.99000001 52:1.48 53:5.9099998 54:2.96 55:4.9299998 56:9.8500004 57:8.3699999 58:4.4299998 59:0.49000001 60:2.46 #
-0.00033705318005756778687934116511826 1:4 2:0 3:0 4:4 5:8 6:20 7:4 8:4 9:0 10:4 11:4 12:0 13:12 14:4 15:4 16:16 17:4 18:8 19:0 20:0 21:4 22:0 23:4 24:0 25:12 26:4 27:4 28:0 29:8 30:12 31:0 32:12 33:12 34:4 35:4 36:12 37:0 38:4 39:0 40:4 41:5.6100001 42:1.25 43:6.54 44:5.6100001 45:3.74 46:5.9200001 47:9.6599998 48:4.3600001 49:6.23 50:8.1000004 51:1.25 52:8.4099998 53:3.74 54:6.23 55:3.74 56:6.8499999 57:4.98 58:2.8 59:1.87 60:3.1199999 #
-0.00033705318005756778687934116511826 1:4 2:4 3:4 4:0 5:0 6:0 7:0 8:12 9:8 10:16 11:8 12:16 13:0 14:8 15:4 16:4 17:4 18:8 19:0 20:0 21:4 22:0 23:0 24:16 25:0 26:4 27:4 28:4 29:24 30:8 31:0 32:4 33:0 34:4 35:8 36:4 37:4 38:8 39:0 40:4 41:6.9200001 42:2.0599999 43:4.77 44:9.1599998 45:3.55 46:6.3600001 47:1.96 48:6.54 49:6.6399999 50:8.79 51:2.6199999 52:3.27 53:5.79 54:5.6100001 55:4.6700001 56:6.73 57:4.8600001 58:6.54 59:1.21 60:1.96 #
-0.00033705318005756778687934116511826 1:24 2:0 3:12 4:8 5:0 6:0 7:4 8:4 9:0 10:8 11:4 12:0 13:0 14:8 15:0 16:8 17:16 18:4 19:0 20:0 21:8 22:0 23:0 24:20 25:0 26:4 27:4 28:4 29:20 30:12 31:0 32:4 33:0 34:4 35:8 36:8 37:0 38:0 39:0 40:4 41:5.7800002 42:0 43:4.6199999 44:13.29 45:0.57999998 46:1.73 47:3.47 48:4.6199999 49:8.0900002 50:8.0900002 51:0 52:9.25 53:3.47 54:10.98 55:6.3600001 56:5.7800002 57:8.6700001 58:2.3099999 59:1.16 60:1.73 #
-0.00033705318005756778687934116511826 1:8 2:12 3:4 4:4 5:4 6:8 7:0 8:0 9:4 10:16 11:8 12:0 13:4 14:4 15:4 16:8 17:0 18:12 19:0 20:0 21:0 22:0 23:12 24:0 25:0 26:8 27:0 28:4 29:8 30:4 31:4 32:8 33:8 34:4 35:8 36:0 37:8 38:12 39:4 40:8 41:6.6399999 42:6.8400002 43:4.8800001 44:5.0799999 45:3.3199999 46:8.1999998 47:3.3199999 48:3.71 49:3.71 50:7.4200001 51:0.77999997 52:3.9100001 53:5.27 54:4.8800001 55:7.23 56:9.3800001 57:4.4899998 58:4.3000002 59:2.3399999 60:4.3000002 #
-0.00033705318005756778687934116511826 1:8 2:0 3:4 4:4 5:4 6:8 7:4 8:4 9:4 10:16 11:4 12:0 13:12 14:0 15:12 16:4 17:0 18:4 19:0 20:8 21:4 22:0 23:0 24:0 25:4 26:4 27:0 28:4 29:0 30:12 31:0 32:8 33:8 34:24 35:8 36:8 37:8 38:4 39:0 40:4 41:5.98 42:2.24 43:4.5300002 44:5.98 45:3.1300001 46:5.98 47:2.6600001 48:3.6400001 49:5.0500002 50:10.75 51:2.24 52:3.0799999 53:6.6399999 54:9.8599997 55:4.9099998 56:9.25 57:5.5100002 58:5.23 59:0.93000001 60:2.3800001 #
-0.00033705318005756778687934116511826 1:20 2:0 3:0 4:0 5:0 6:8 7:0 8:0 9:0 10:32 11:4 12:0 13:20 14:0 15:8 16:0 17:0 18:4 19:4 20:0 21:12 22:0 23:4 24:8 25:4 26:12 27:8 28:8 29:4 30:12 31:0 32:4 33:4 34:0 35:0 36:4 37:4 38:4 39:0 40:8 41:10.4 42:2.48 43:5.4499998 44:3.96 45:3.47 46:11.39 47:2.48 48:1.98 49:2.48 50:9.4099998 51:1.98 52:1.98 53:6.9299998 54:3.96 55:11.88 56:4.46 57:2.48 58:7.4299998 59:2.48 60:2.97 #
-0.00033705318005756778687934116511826 1:0 2:0 3:12 4:12 5:4 6:0 7:0 8:4 9:4 10:12 11:8 12:8 13:4 14:4 15:8 16:4 17:8 18:8 19:0 20:0 21:0 22:0 23:0 24:24 25:0 26:0 27:0 28:16 29:12 30:12 31:0 32:0 33:4 34:0 35:8 36:0 37:4 38:12 39:0 40:8 41:5.3400002 42:0.97000003 43:5.3400002 44:8.7399998 45:6.3099999 46:3.8800001 47:1.9400001 48:10.68 49:9.2200003 50:6.8000002 51:0.49000001 52:5.3400002 53:6.8000002 54:1.9400001 55:5.3400002 56:7.77 57:3.8800001 58:4.8499999 59:0.49000001 60:3.8800001 #
-0.00033705318005756778687934116511826 1:16 2:0 3:0 4:0 5:0 6:12 7:0 8:4 9:0 10:24 11:4 12:4 13:8 14:4 15:4 16:4 17:8 18:0 19:4 20:4 21:20 22:0 23:4 24:8 25:4 26:4 27:0 28:8 29:4 30:16 31:0 32:0 33:4 34:4 35:4 36:8 37:0 38:4 39:4 40:4 41:8.8599997 42:2.1099999 43:10.13 44:5.0599999 45:2.1099999 46:7.1700001 47:2.95 48:6.75 49:3.8 50:6.3299999 51:0.83999997 52:5.4899998 53:3.3800001 54:2.95 55:0.83999997 56:10.13 57:8.4399996 58:4.6399999 59:1.6900001 60:6.3299999 #
0.0023593722604029745623654967801031 1:12 2:0 3:8 4:16 5:0 6:8 7:0 8:4 9:8 10:8 11:12 12:0 13:12 14:4 15:0 16:4 17:0 18:4 19:0 20:0 21:4 22:0 23:8 24:4 25:4 26:8 27:0 28:0 29:12 30:12 31:0 32:12 33:8 34:4 35:4 36:0 37:4 38:0 39:0 40:16 41:8.1199999 42:3.96 43:5.8299999 44:5.8299999 45:2.9200001 46:6.04 47:1.67 48:5.4200001 49:6.8800001 50:7.71 51:2.29 52:3.96 53:2.71 54:4.3800001 55:5 56:7.29 57:6.6700001 58:8.75 59:1.67 60:2.9200001 #
-0.00033705318005756778687934116511826 1:0 2:4 3:4 4:20 5:4 6:0 7:0 8:4 9:8 10:4 11:12 12:8 13:4 14:0 15:8 16:0 17:0 18:12 19:0 20:8 21:0 22:0 23:32 24:28 25:0 26:0 27:4 28:0 29:20 30:0 31:0 32:0 33:4 34:0 35:4 36:8 37:0 38:0 39:0 40:0 41:6.1900001 42:1.03 43:6.1900001 44:9.9700003 45:2.75 46:6.1900001 47:2.4100001 48:6.8699999 49:9.2799997 50:7.9000001 51:2.0599999 52:3.4400001 53:3.0899999 54:2.75 55:4.8099999 56:4.8099999 57:5.1500001 58:10.65 59:0.34 60:4.1199999 #
-0.00033705318005756778687934116511826 1:8 2:0 3:4 4:0 5:12 6:4 7:12 8:8 9:0 10:12 11:4 12:0 13:0 14:8 15:8 16:12 17:0 18:4 19:0 20:4 21:0 22:0 23:0 24:4 25:4 26:0 27:4 28:0 29:32 30:4 31:8 32:12 33:4 34:4 35:0 36:8 37:8 38:0 39:0 40:8 41:2.6300001 42:0.57999998 43:6.73 44:7.8899999 45:5.8499999 46:4.3899999 47:1.17 48:4.3899999 49:9.0600004 50:5.8499999 51:1.17 52:4.9699998 53:6.4299998 54:2.05 55:5.2600002 56:5.8499999 57:7.5999999 58:10.23 59:2.05 60:5.8499999 #
-0.00033705318005756778687934116511826 1:0 2:0 3:0 4:12 5:0 6:0 7:0 8:8 9:4 10:20 11:4 12:4 13:0 14:4 15:4 16:20 17:8 18:8 19:4 20:0 21:0 22:4 23:0 24:12 25:0 26:0 27:0 28:0 29:12 30:8 31:0 32:12 33:4 34:4 35:4 36:16 37:4 38:0 39:16 40:4 41:6.1500001 42:1.45 43:6.48 44:8.1599998 45:3.02 46:4.25 47:3.1300001 48:5.6999998 49:7.3699999 50:7.1500001 51:1.6799999 52:5.3600001 53:5.3600001 54:3.1300001 55:5.5900002 56:11.17 57:5.3600001 58:5.6999998 59:1.34 60:2.46 #
-0.00033705318005756778687934116511826 1:8 2:0 3:0 4:12 5:0 6:0 7:0 8:8 9:8 10:8 11:8 12:16 13:0 14:0 15:4 16:20 17:4 18:4 19:0 20:0 21:8 22:0 23:16 24:32 25:0 26:4 27:0 28:4 29:0 30:0 31:4 32:12 33:4 34:0 35:4 36:0 37:4 38:8 39:0 40:0 41:3.6800001 42:0 43:6.0500002 44:8.9499998 45:2.8900001 46:4.7399998 47:1.3200001 48:9.4700003 49:5.5300002 50:10.53 51:1.05 52:8.9499998 53:3.6800001 54:3.95 55:6.5799999 56:9.7399998 57:5.5300002 58:4.7399998 59:0.25999999 60:2.3699999 #
0.0023593722604029745623654967801031 1:12 2:0 3:0 4:0 5:0 6:0 7:0 8:0 9:4 10:36 11:4 12:4 13:16 14:0 15:0 16:4 17:8 18:8 19:4 20:0 21:16 22:8 23:0 24:0 25:0 26:12 27:0 28:0 29:0 30:4 31:0 32:0 33:20 34:0 35:16 36:4 37:12 38:4 39:0 40:4 41:11.25 42:5 43:2.5 44:3.75 45:0 46:15 47:3.75 48:2.5 49:2.5 50:17.5 51:1.25 52:3.75 53:6.25 54:6.25 55:10 56:2.5 57:3.75 58:1.25 59:0 60:1.25 #
-0.00033705318005756778687934116511826 1:12 2:0 3:4 4:0 5:4 6:12 7:0 8:8 9:8 10:4 11:4 12:4 13:8 14:0 15:4 16:8 17:0 18:16 19:0 20:4 21:12 22:4 23:4 24:8 25:4 26:8 27:0 28:4 29:12 30:8 31:0 32:4 33:4 34:8 35:0 36:8 37:0 38:4 39:4 40:4 41:6.8400002 42:2.28 43:4.8899999 44:5.8600001 45:2.6099999 46:7.4899998 47:1.3 48:6.8400002 49:2.6099999 50:12.05 51:1.95 52:4.8899999 53:8.4700003 54:3.9100001 55:5.21 56:6.5100002 57:7.1700001 58:5.8600001 59:0.33000001 60:2.9300001 #
0.0023593722604029745623654967801031 1:36 2:0 3:0 4:0 5:4 6:12 7:0 8:0 9:0 10:24 11:4 12:0 13:0 14:0 15:4 16:4 17:4 18:8 19:0 20:0 21:20 22:0 23:4 24:8 25:0 26:4 27:0 28:0 29:4 30:16 31:8 32:4 33:4 34:4 35:4 36:8 37:0 38:8 39:0 40:4 41:10.37 42:0.46000001 43:6.2199998 44:7.3699999 45:4.3800001 46:9.9099998 47:2.76 48:7.1399999 49:5.3000002 50:7.3699999 51:2.76 52:3 53:4.1500001 54:2.53 55:5.0700002 56:8.9899998 57:2.0699999 58:7.3699999 59:0.23 60:2.53 #
-0.00033705318005756778687934116511826 1:16 2:0 3:0 4:0 5:0 6:16 7:0 8:0 9:4 10:8 11:8 12:8 13:16 14:4 15:0 16:12 17:0 18:4 19:0 20:4 21:12 22:0 23:0 24:4 25:0 26:8 27:0 28:0 29:4 30:24 31:0 32:0 33:12 34:0 35:0 36:16 37:4 38:8 39:4 40:4 41:7.1100001 42:0 43:4.5700002 44:7.1100001 45:3.8099999 46:6.8499999 47:1.27 48:5.3299999 49:5.5799999 50:8.6300001 51:2.28 52:3.8099999 53:6.0900002 54:2.79 55:5.3299999 56:8.8800001 57:5.3299999 58:10.66 59:1.27 60:3.3 #
-0.00033705318005756778687934116511826 1:4 2:0 3:4 4:4 5:8 6:16 7:0 8:8 9:12 10:0 11:8 12:0 13:8 14:0 15:8 16:4 17:4 18:12 19:0 20:0 21:8 22:4 23:12 24:16 25:0 26:0 27:0 28:12 29:12 30:8 31:0 32:8 33:0 34:4 35:8 36:4 37:4 38:0 39:0 40:0 41:5.0799999 42:0 43:3.3900001 44:11.3 45:5.6500001 46:4.52 47:2.8199999 48:5.0799999 49:10.73 50:8.4700003 51:2.8199999 52:2.8199999 53:3.95 54:3.95 55:4.52 56:3.3900001 57:8.4700003 58:6.21 59:1.13 60:5.6500001 #
-0.00033705318005756778687934116511826 1:8 2:0 3:4 4:0 5:0 6:16 7:0 8:0 9:0 10:36 11:4 12:0 13:4 14:8 15:4 16:4 17:4 18:4 19:4 20:0 21:4 22:0 23:0 24:4 25:4 26:8 27:4 28:0 29:4 30:24 31:0 32:0 33:16 34:4 35:4 36:12 37:4 38:4 39:4 40:0 41:6.2199998 42:0.51999998 43:2.0699999 44:10.88 45:4.1500001 46:7.25 47:3.1099999 48:0.51999998 49:1.04 50:19.690001 51:1.55 52:1.55 53:6.7399998 54:6.7399998 55:9.8400002 56:6.2199998 57:3.6300001 58:4.6599998 59:2.5899999 60:1.04 #
-0.00033705318005756778687934116511826 1:16 2:8 3:0 4:0 5:0 6:16 7:0 8:0 9:0 10:32 11:4 12:0 13:0 14:8 15:4 16:4 17:0 18:8 19:0 20:0 21:4 22:0 23:0 24:8 25:4 26:4 27:0 28:4 29:4 30:16 31:4 32:0 33:16 34:8 35:12 36:4 37:0 38:4 39:4 40:4 41:5.29 42:5.77 43:5.0500002 44:6.73 45:3.1199999 46:9.6199999 47:3.6099999 48:3.8499999 49:4.3299999 50:8.4099998 51:0.95999998 52:3.1199999 53:4.8099999 54:4.5700002 55:6.4899998 56:6.9699998 57:5.77 58:6.9699998 59:1.92 60:2.6400001 #
-0.00033705318005756778687934116511826 1:4 2:0 3:0 4:8 5:8 6:8 7:0 8:0 9:4 10:8 11:4 12:4 13:0 14:4 15:4 16:28 17:4 18:8 19:0 20:4 21:4 22:4 23:4 24:8 25:4 26:4 27:0 28:20 29:12 30:8 31:0 32:4 33:4 34:4 35:4 36:8 37:4 38:4 39:0 40:0 41:6.9000001 42:0.86000001 43:6.9000001 44:6.6799998 45:5.5999999 46:6.0300002 47:2.1600001 48:6.4699998 49:6.0300002 50:8.6199999 51:1.08 52:4.96 53:4.96 54:2.5899999 55:4.5300002 56:7.1100001 57:6.6799998 58:6.6799998 59:1.08 60:4.0900002 #
-0.00033705318005756778687934116511826 1:0 2:0 3:0 4:4 5:4 6:0 7:0 8:0 9:0 10:48 11:4 12:0 13:20 14:0 15:0 16:12 17:4 18:4 19:0 20:0 21:4 22:0 23:4 24:8 25:0 26:4 27:4 28:0 29:0 30:8 31:0 32:0 33:20 34:4 35:12 36:8 37:12 38:4 39:8 40:0 41:4.7600002 42:1.1900001 43:7.1399999 44:7.1399999 45:1.1900001 46:4.7600002 47:1.1900001 48:1.1900001 49:2.3800001 50:19.049999 51:0 52:3.5699999 53:8.3299999 54:7.1399999 55:9.5200005 56:10.71 57:5.9499998 58:2.3800001 59:2.3800001 60:0 #
-0.00033705318005756778687934116511826 1:56 2:0 3:4 4:8 5:0 6:4 7:0 8:8 9:0 10:0 11:4 12:0 13:0 14:0 15:0 16:4 17:4 18:8 19:0 20:0 21:4 22:0 23:4 24:0 25:0 26:4 27:0 28:4 29:12 30:12 31:0 32:8 33:4 34:12 35:8 36:8 37:0 38:8 39:0 40:12 41:6.0999999 42:1.91 43:6.0999999 44:9.5299997 45:3.4300001 46:5.21 47:1.52 48:3.6800001 49:3.5599999 50:13.47 51:2.4100001 52:2.03 53:4.6999998 54:4.5700002 55:8.7700005 56:6.8600001 57:4.5700002 58:7.2399998 59:1.78 60:2.54 #
0.0023593722604029745623654967801031 1:0 2:4 3:16 4:8 5:4 6:0 7:4 8:8 9:4 10:8 11:8 12:12 13:4 14:8 15:0 16:4 17:0 18:4 19:0 20:4 21:4 22:0 23:24 24:16 25:8 26:4 27:0 28:4 29:4 30:8 31:0 32:8 33:0 34:4 35:0 36:8 37:4 38:0 39:0 40:4 41:5.1500001 42:1.21 43:6.3600001 44:10 45:3.3299999 46:1.52 47:1.8200001 48:5.7600002 49:9.3900003 50:6.3600001 51:1.21 52:7.5799999 53:3.03 54:7.27 55:6.9699998 56:9.0900002 57:4.5500002 58:3.03 59:1.8200001 60:4.5500002 #
0.0023593722604029745623654967801031 1:4 2:0 3:4 4:8 5:0 6:0 7:0 8:0 9:12 10:16 11:8 12:0 13:0 14:8 15:4 16:4 17:4 18:8 19:4 20:16 21:8 22:0 23:0 24:12 25:0 26:8 27:0 28:4 29:4 30:0 31:0 32:4 33:8 34:4 35:8 36:16 37:8 38:8 39:4 40:4 41:5.7800002 42:2.1800001 43:4.8699999 44:6.8000002 45:3.8499999 46:5.4899998 47:2.9400001 48:3.74 49:3.9300001 50:12.72 51:2.0699999 52:3.45 53:5.8899999 54:5.1599998 55:5.71 56:9.3100004 57:4.9099998 58:7.23 59:1.34 60:2.6199999 #
0.0023593722604029745623654967801031 1:4 2:0 3:0 4:0 5:24 6:4 7:4 8:4 9:4 10:12 11:8 12:0 13:4 14:4 15:8 16:0 17:8 18:4 19:4 20:4 21:0 22:0 23:16 24:8 25:8 26:8 27:8 28:4 29:12 30:4 31:0 32:8 33:4 34:4 35:0 36:4 37:0 38:4 39:0 40:8 41:4.3099999 42:2.8699999 43:6.2199998 44:9.5699997 45:3.3499999 46:6.2199998 47:2.3900001 48:5.7399998 49:10.05 50:10.05 51:1.91 52:4.3099999 53:4.3099999 54:3.8299999 55:3.8299999 56:5.2600002 57:4.7800002 58:6.2199998 59:0.47999999 60:4.3099999 #
-0.00033705318005756778687934116511826 1:12 2:0 3:4 4:4 5:8 6:0 7:0 8:4 9:12 10:12 11:4 12:12 13:8 14:4 15:4 16:4 17:0 18:8 19:0 20:0 21:20 22:0 23:4 24:0 25:0 26:16 27:0 28:0 29:44 30:0 31:4 32:0 33:4 34:0 35:4 36:0 37:4 38:0 39:0 40:0 41:3.3299999 42:0 43:5 44:8.3299999 45:3.3299999 46:6.6700001 47:1.67 48:6.6700001 49:10 50:11.67 51:1.67 52:3.3299999 53:5 54:1.67 55:8.3299999 56:8.3299999 57:3.3299999 58:5 59:0 60:6.6700001 #
0.0023593722604029745623654967801031 1:4 2:0 3:0 4:16 5:0 6:0 7:0 8:8 9:8 10:4 11:4 12:16 13:16 14:8 15:4 16:0 17:4 18:8 19:0 20:0 21:0 22:0 23:4 24:16 25:0 26:12 27:4 28:4 29:8 30:12 31:0 32:0 33:4 34:4 35:4 36:12 37:8 38:4 39:0 40:4 41:4.7199998 42:1.9299999 43:5.79 44:7.3000002 45:4.29 46:4.9400001 47:2.3599999 48:4.29 49:8.5799999 50:7.0799999 51:1.0700001 52:4.0799999 53:4.9400001 54:3.4300001 55:5.5799999 56:10.52 57:6.6500001 58:6.8699999 59:1.72 60:3.8599999 #
-0.00033705318005756778687934116511826 1:0 2:0 3:8 4:4 5:8 6:0 7:0 8:8 9:8 10:8 11:8 12:4 13:16 14:4 15:0 16:0 17:0 18:4 19:0 20:20 21:0 22:0 23:16 24:32 25:4 26:12 27:0 28:8 29:4 30:0 31:4 32:8 33:0 34:12 35:0 36:0 37:0 38:0 39:0 40:0 41:5.2199998 42:1.79 43:5.77 44:8.5200005 45:4.1199999 46:4.1199999 47:1.92 48:7.2800002 49:6.46 50:10.85 51:3.1600001 52:3.3 53:3.8499999 54:3.1600001 55:6.73 56:7.4200001 57:5.77 58:6.1799998 59:0.55000001 60:3.8499999 #
-0.00033705318005756778687934116511826 1:0 2:4 3:4 4:0 5:8 6:0 7:4 8:0 9:8 10:20 11:4 12:4 13:0 14:4 15:8 16:20 17:4 18:4 19:0 20:4 21:0 22:0 23:4 24:4 25:0 26:12 27:4 28:4 29:8 30:16 31:0 32:4 33:4 34:4 35:12 36:12 37:8 38:0 39:4 40:0 41:4.8099999 42:1.6 43:6.73 44:6.4099998 45:2.24 46:6.73 47:1.92 48:5.1300001 49:4.4899998 50:8.0100002 51:1.92 52:3.8499999 53:3.21 54:5.77 55:6.73 56:7.3699999 57:9.29 58:9.29 59:1.92 60:2.5599999 #
-0.00033705318005756778687934116511826 1:16 2:0 3:0 4:8 5:0 6:0 7:8 8:4 9:4 10:16 11:16 12:4 13:8 14:0 15:12 16:4 17:0 18:0 19:0 20:0 21:8 22:0 23:0 24:0 25:12 26:4 27:8 28:4 29:4 30:4 31:0 32:4 33:16 34:12 35:8 36:8 37:4 38:0 39:0 40:4 41:8.3000002 42:0 43:1.4400001 44:9.0299997 45:2.8900001 46:7.9400001 47:4.6900001 48:0.36000001 49:6.5 50:9.75 51:3.97 52:0.72000003 53:9.0299997 54:12.27 55:5.0500002 56:6.8600001 57:5.7800002 58:2.8900001 59:0 60:2.53 #
-0.00033705318005756778687934116511826 1:8 2:0 3:8 4:4 5:4 6:8 7:0 8:4 9:16 10:4 11:4 12:0 13:8 14:8 15:4 16:8 17:0 18:8 19:0 20:4 21:4 22:0 23:16 24:28 25:4 26:0 27:0 28:0 29:0 30:4 31:0 32:8 33:0 34:4 35:0 36:28 37:0 38:0 39:0 40:4 41:1.3 42:0 43:3.9000001 44:6.4899998 45:3.9000001 46:5.1900001 47:0 48:6.4899998 49:12.99 50:9.0900002 51:2.5999999 52:7.79 53:5.1900001 54:5.1900001 55:3.9000001 56:3.9000001 57:1.3 58:12.99 59:3.9000001 60:3.9000001 #
0.0023593722604029745623654967801031 1:4 2:0 3:0 4:0 5:8 6:0 7:16 8:0 9:0 10:4 11:4 12:0 13:12 14:0 15:4 16:32 17:4 18:8 19:0 20:4 21:16 22:0 23:12 24:12 25:4 26:8 27:4 28:4 29:0 30:16 31:4 32:0 33:4 34:4 35:0 36:4 37:0 38:8 39:0 40:0 41:7.3699999 42:1.6799999 43:6.1100001 44:5.2600002 45:1.6799999 46:8 47:4.4200001 48:5.6799998 49:4.4200001 50:10.32 51:3.3699999 52:2.1099999 53:3.5799999 54:3.5799999 55:4 56:12.42 57:4.6300001 58:8.6300001 59:1.26 60:1.47 #
0.0011843910573237134004065396197802 1:20 2:4 3:0 4:0 5:12 6:4 7:4 8:8 9:0 10:16 11:4 12:8 13:4 14:4 15:4 16:0 17:4 18:0 19:0 20:4 21:8 22:4 23:0 24:0 25:0 26:0 27:4 28:0 29:0 30:36 31:0 32:0 33:12 34:8 35:0 36:16 37:4 38:8 39:0 40:0 41:7.1399999 42:1.59 43:6.75 44:7.1399999 45:4.3699999 46:3.1700001 47:3.1700001 48:2.3800001 49:3.5699999 50:13.1 51:1.1900001 52:2.3800001 53:4.3699999 54:3.97 55:5.9499998 56:8.7299995 57:6.75 58:9.5200005 59:0.79000002 60:3.97 #
0.0023593722604029745623654967801031 1:8 2:0 3:0 4:0 5:0 6:0 7:4 8:16 9:4 10:20 11:4 12:0 13:4 14:0 15:4 16:24 17:4 18:8 19:0 20:0 21:4 22:0 23:8 24:4 25:8 26:4 27:8 28:12 29:8 30:12 31:4 32:8 33:4 34:0 35:12 36:4 37:0 38:0 39:0 40:0 41:3.77 42:1.08 43:7.5500002 44:8.3599997 45:4.3099999 46:3.5 47:2.1600001 48:8.3599997 49:6.7399998 50:11.05 51:1.89 52:9.4300003 53:3.77 54:3.77 55:4.3099999 56:9.1599998 57:3.77 58:3.5 59:1.08 60:2.4300001 #
0.0023593722604029745623654967801031 1:40 2:0 3:4 4:4 5:0 6:12 7:0 8:0 9:0 10:12 11:4 12:0 13:4 14:0 15:4 16:4 17:0 18:8 19:0 20:4 21:16 22:4 23:12 24:12 25:12 26:0 27:4 28:0 29:8 30:8 31:0 32:0 33:8 34:0 35:0 36:0 37:4 38:8 39:4 40:0 41:3.97 42:1.3200001 43:4.6399999 44:5.96 45:3.97 46:5.96 47:3.97 48:6.6199999 49:3.3099999 50:9.2700005 51:2.6500001 52:3.3099999 53:7.2800002 54:5.96 55:3.3099999 56:11.26 57:4.6399999 58:8.6099997 59:1.99 60:1.99 #
-0.00033705318005756778687934116511826 1:16 2:4 3:0 4:0 5:4 6:8 7:8 8:0 9:0 10:24 11:4 12:0 13:0 14:4 15:0 16:16 17:0 18:12 19:0 20:0 21:24 22:0 23:0 24:0 25:8 26:4 27:0 28:0 29:0 30:8 31:0 32:8 33:4 34:4 35:0 36:12 37:12 38:12 39:4 40:0 41:6.75 42:0.51999998 43:7.96 44:5.71 45:3.8099999 46:10.73 47:0.87 48:4.5 49:2.4200001 50:8.4799995 51:1.5599999 52:5.3600001 53:4.8400002 54:2.5999999 55:2.25 56:8.6499996 57:8.6499996 58:5.71 59:2.77 60:5.8800001 #
-0.00033705318005756778687934116511826 1:20 2:4 3:0 4:0 5:4 6:0 7:4 8:0 9:0 10:8 11:4 12:0 13:4 14:4 15:12 16:24 17:0 18:12 19:0 20:0 21:20 22:0 23:8 24:8 25:0 26:0 27:0 28:8 29:8 30:8 31:0 32:4 33:0 34:8 35:0 36:4 37:16 38:8 39:0 40:0 41:7.0700002 42:3.03 43:5.0500002 44:9.0900002 45:5.0500002 46:4.04 47:1.01 48:5.0500002 49:7.0700002 50:5.0500002 51:4.04 52:2.02 53:3.03 54:3.03 55:4.04 56:15.15 57:5.0500002 58:12.12 59:0 60:0 #
-0.00033705318005756778687934116511826 1:36 2:0 3:0 4:0 5:0 6:4 7:0 8:0 9:4 10:16 11:4 12:4 13:8 14:0 15:0 16:12 17:4 18:4 19:4 20:0 21:12 22:0 23:12 24:8 25:0 26:4 27:0 28:4 29:8 30:20 31:4 32:0 33:0 34:0 35:4 36:0 37:4 38:12 39:8 40:0 41:8.0500002 42:1.08 43:4.8000002 44:6.1900001 45:3.8699999 46:7.2800002 47:3.0999999 48:4.6399999 49:3.72 50:8.5100002 51:2.01 52:5.5700002 53:4.4899998 54:3.25 55:4.6399999 56:10.68 57:6.1900001 58:5.2600002 59:2.48 60:4.1799998 #
-0.00033705318005756778687934116511826 1:24 2:4 3:4 4:0 5:0 6:0 7:0 8:4 9:0 10:8 11:8 12:4 13:4 14:0 15:4 16:8 17:4 18:16 19:4 20:4 21:12 22:4 23:4 24:8 25:8 26:0 27:4 28:0 29:28 30:0 31:0 32:0 33:0 34:4 35:0 36:0 37:16 38:8 39:0 40:4 41:5.8099999 42:1.73 43:10.99 44:10.05 45:4.4000001 46:2.98 47:3.6099999 48:6.1199999 49:8.79 50:9.5799999 51:1.41 52:5.9699998 53:2.6700001 54:2.8299999 55:2.04 56:2.2 57:7.8499999 58:5.6500001 59:1.41 60:3.9200001 #
-0.00033705318005756778687934116511826 1:8 2:4 3:0 4:0 5:16 6:0 7:8 8:4 9:4 10:12 11:4 12:4 13:4 14:0 15:0 16:12 17:4 18:8 19:4 20:4 21:16 22:0 23:0 24:8 25:12 26:12 27:4 28:4 29:8 30:0 31:0 32:0 33:0 34:0 35:4 36:8 37:12 38:4 39:8 40:0 41:4.4000001 42:2.75 43:10.44 44:3.8499999 45:4.9499998 46:9.3400002 47:1.65 48:5.4899998 49:1.65 50:6.5900002 51:4.9499998 52:7.6900001 53:3.8499999 54:3.3 55:2.75 56:8.2399998 57:8.79 58:4.4000001 59:1.1 60:3.8499999 #
0.0023593722604029745623654967801031 1:4 2:12 3:8 4:8 5:8 6:4 7:4 8:0 9:4 10:16 11:4 12:0 13:12 14:4 15:4 16:8 17:0 18:0 19:0 20:0 21:12 22:8 23:0 24:8 25:0 26:0 27:0 28:0 29:4 30:8 31:0 32:4 33:4 34:20 35:4 36:24 37:0 38:0 39:0 40:4 41:11.59 42:5.8000002 43:5.8000002 44:5.8000002 45:1.45 46:5.3099999 47:3.8599999 48:3.3800001 49:3.3800001 50:8.21 51:0.97000003 52:1.9299999 53:7.73 54:6.7600002 55:8.21 56:10.14 57:4.3499999 58:4.3499999 59:0 60:0.97000003 #
-0.00033705318005756778687934116511826 1:4 2:0 3:8 4:4 5:0 6:0 7:0 8:8 9:4 10:16 11:4 12:12 13:4 14:4 15:4 16:8 17:4 18:8 19:8 20:0 21:4 22:0 23:0 24:4 25:0 26:0 27:4 28:4 29:4 30:8 31:4 32:8 33:12 34:8 35:4 36:16 37:16 38:4 39:0 40:0 41:6.5 42:0.60000002 43:6.04 44:4.98 45:4.0799999 46:5.4400001 47:2.1099999 48:5.5900002 49:7.5500002 50:8.3100004 51:1.21 52:7.0999999 53:7.0999999 54:5.29 55:3.1700001 56:10.57 57:6.04 58:5.29 59:0.91000003 60:2.1099999 #
-0.00033705318005756778687934116511826 1:16 2:4 3:4 4:4 5:8 6:4 7:0 8:8 9:0 10:24 11:4 12:4 13:0 14:4 15:0 16:4 17:0 18:4 19:4 20:4 21:8 22:0 23:8 24:8 25:0 26:12 27:0 28:0 29:8 30:20 31:0 32:0 33:8 34:4 35:0 36:12 37:8 38:0 39:0 40:4 41:8.6800003 42:4.4899998 43:4.8899999 44:5.8099999 45:5.1500001 46:7.6900001 47:1.14 48:2.6099999 49:2.6500001 50:9.4200001 51:0.88 52:2.0599999 53:6.9899998 54:6.6199999 55:6.6599998 56:9.5299997 57:4.6300001 58:6.1100001 59:1.4299999 60:2.5699999 #
-0.00033705318005756778687934116511826 1:16 2:0 3:4 4:0 5:4 6:0 7:0 8:4 9:0 10:20 11:4 12:0 13:4 14:4 15:12 16:12 17:12 18:4 19:0 20:0 21:4 22:0 23:0 24:4 25:12 26:12 27:0 28:0 29:4 30:4 31:0 32:8 33:0 34:12 35:0 36:20 37:4 38:16 39:0 40:0 41:8.8599997 42:0.69999999 43:6.0599999 44:2.0999999 45:3.5 46:8.6199999 47:1.63 48:3.96 49:2.3299999 50:6.5300002 51:1.86 52:8.1599998 53:2.5599999 54:5.8299999 55:4.1999998 56:11.89 57:7.23 58:5.1300001 59:5.3600001 60:3.5 #
-0.00033705318005756778687934116511826 1:20 2:0 3:0 4:0 5:8 6:4 7:0 8:0 9:4 10:20 11:4 12:0 13:8 14:8 15:0 16:12 17:0 18:8 19:4 20:0 21:16 22:4 23:8 24:0 25:8 26:16 27:0 28:8 29:4 30:0 31:0 32:8 33:8 34:4 35:4 36:0 37:0 38:4 39:4 40:4 41:10.89 42:2.23 43:4.75 44:2.79 45:3.0699999 46:7.54 47:1.4 48:4.1900001 49:4.1900001 50:6.98 51:1.12 52:5.5900002 53:4.75 54:6.1500001 55:1.12 56:8.9399996 57:11.17 58:6.4200001 59:2.51 60:4.1900001 #
-0.00033705318005756778687934116511826 1:28 2:0 3:0 4:0 5:8 6:12 7:0 8:8 9:4 10:16 11:4 12:0 13:8 14:0 15:0 16:8 17:0 18:4 19:0 20:0 21:24 22:12 23:8 24:4 25:0 26:4 27:0 28:0 29:4 30:12 31:0 32:0 33:4 34:0 35:0 36:8 37:12 38:4 39:4 40:0 41:20 42:5 43:6.6700001 44:5 45:3.3299999 46:5 47:0 48:1.67 49:3.3299999 50:8.3299999 51:0 52:5 53:3.3299999 54:3.3299999 55:3.3299999 56:15 57:1.67 58:6.6700001 59:1.67 60:1.67 #
-0.00033705318005756778687934116511826 1:20 2:4 3:0 4:0 5:4 6:4 7:0 8:8 9:4 10:24 11:4 12:0 13:4 14:0 15:0 16:24 17:0 18:0 19:0 20:0 21:12 22:4 23:4 24:4 25:0 26:4 27:0 28:0 29:4 30:16 31:4 32:4 33:8 34:4 35:4 36:8 37:8 38:4 39:4 40:4 41:8.3800001 42:5.9899998 43:2.99 44:4.79 45:5.9899998 46:6.5900002 47:3.5899999 48:4.79 49:5.3899999 50:7.7800002 51:2.99 52:3.5899999 53:5.3899999 54:4.1900001 55:4.1900001 56:7.7800002 57:6.5900002 58:4.1900001 59:1.2 60:3.5899999 #
-0.00033705318005756778687934116511826 1:20 2:4 3:0 4:4 5:8 6:0 7:0 8:4 9:0 10:16 11:4 12:0 13:8 14:0 15:4 16:8 17:4 18:8 19:0 20:8 21:12 22:0 23:4 24:8 25:4 26:4 27:0 28:12 29:0 30:20 31:4 32:0 33:4 34:4 35:8 36:8 37:0 38:8 39:0 40:0 41:7.3299999 42:1.33 43:6.6700001 44:8 45:5 46:8.6700001 47:3.6700001 48:7.6700001 49:5.6700001 50:4.6700001 51:2.3299999 52:6.3299999 53:3 54:4.3299999 55:4 56:5.6700001 57:5.3299999 58:8 59:0.67000002 60:1.67 #
-0.00033705318005756778687934116511826 1:12 2:0 3:4 4:16 5:4 6:4 7:0 8:0 9:8 10:4 11:4 12:4 13:4 14:8 15:0 16:8 17:8 18:8 19:0 20:4 21:0 22:0 23:0 24:12 25:8 26:0 27:4 28:4 29:8 30:16 31:0 32:8 33:12 34:4 35:16 36:4 37:4 38:0 39:0 40:0 41:7.25 42:1.45 43:4.9299998 44:10.72 45:3.77 46:4.9299998 47:2.03 48:4.6399999 49:8.9899998 50:7.8299999 51:0.87 52:6.96 53:4.9299998 54:2.3199999 55:6.3800001 56:7.8299999 57:3.48 58:5.5100002 59:2.03 60:3.1900001 #
-0.00033705318005756778687934116511826 1:8 2:12 3:4 4:0 5:0 6:16 7:4 8:0 9:12 10:4 11:4 12:4 13:8 14:0 15:4 16:4 17:4 18:8 19:0 20:4 21:0 22:0 23:0 24:12 25:4 26:0 27:8 28:0 29:36 30:0 31:0 32:4 33:4 34:0 35:8 36:20 37:4 38:0 39:0 40:0 41:0.94999999 42:0.94999999 43:5.71 44:16.190001 45:1.9 46:0.94999999 47:0.94999999 48:2.8599999 49:27.620001 50:5.71 51:0 52:3.8099999 53:0.94999999 54:4.7600002 55:5.71 56:13.33 57:2.8599999 58:2.8599999 59:0 60:1.9 #
-0.00033705318005756778687934116511826 1:0 2:0 3:8 4:12 5:4 6:12 7:0 8:0 9:12 10:12 11:4 12:4 13:4 14:0 15:4 16:12 17:8 18:0 19:0 20:4 21:0 22:0 23:8 24:24 25:0 26:0 27:0 28:0 29:8 30:0 31:0 32:4 33:24 34:0 35:0 36:28 37:4 38:0 39:0 40:0 41:6.8899999 42:3.28 43:10.16 44:5.25 45:4.9200001 46:7.8699999 47:2.3 48:5.25 49:7.21 50:7.54 51:3.6099999 52:3.6099999 53:2.95 54:3.9300001 55:4.2600002 56:6.8899999 57:5.25 58:5.9000001 59:1.64 60:1.3099999 #
-0.00033705318005756778687934116511826 1:8 2:0 3:8 4:12 5:8 6:8 7:4 8:0 9:4 10:12 11:4 12:0 13:0 14:8 15:8 16:8 17:0 18:4 19:4 20:0 21:4 22:0 23:0 24:8 25:12 26:4 27:0 28:4 29:4 30:12 31:0 32:4 33:8 34:0 35:4 36:16 37:0 38:8 39:4 40:8 41:3.3499999 42:1.6799999 43:5.1900001 44:8.54 45:5.5300002 46:5.1900001 47:2.51 48:7.54 49:6.1999998 50:8.3800001 51:2.3499999 52:5.3600001 53:4.3600001 54:4.52 55:4.6900001 56:7.3699999 57:5.6999998 58:6.6999998 59:1.01 60:3.8499999 #
-0.00033705318005756778687934116511826 1:0 2:4 3:8 4:12 5:0 6:4 7:4 8:4 9:8 10:20 11:8 12:8 13:0 14:4 15:0 16:8 17:4 18:0 19:4 20:0 21:0 22:0 23:36 24:12 25:4 26:0 27:0 28:0 29:0 30:0 31:0 32:0 33:0 34:4 35:0 36:32 37:12 38:0 39:0 40:0 41:4.0700002 42:0.87 43:3.49 44:7.8499999 45:4.0700002 46:4.3600001 47:3.49 48:2.9100001 49:13.95 50:6.4000001 51:2.6199999 52:2.6199999 53:5.8099999 54:6.4000001 55:7.27 56:9.8800001 57:4.3600001 58:4.0700002 59:1.74 60:3.78 #
-0.00033705318005756778687934116511826 1:12 2:8 3:0 4:0 5:8 6:8 7:0 8:4 9:0 10:4 11:4 12:0 13:4 14:4 15:4 16:24 17:16 18:0 19:0 20:0 21:0 22:0 23:8 24:4 25:8 26:4 27:0 28:8 29:8 30:24 31:0 32:8 33:4 34:4 35:4 36:0 37:4 38:12 39:0 40:0 41:7.2800002 42:0.97000003 43:9.2200003 44:4.3699999 45:5.3400002 46:12.62 47:0 48:3.8800001 49:7.77 50:6.8000002 51:1.9400001 52:3.4000001 53:4.8499999 54:2.4300001 55:5.8299999 56:7.77 57:4.8499999 58:5.3400002 59:0.49000001 60:4.8499999 #
-0.00033705318005756778687934116511826 1:8 2:4 3:0 4:4 5:4 6:4 7:0 8:12 9:4 10:16 11:12 12:0 13:0 14:0 15:4 16:8 17:4 18:8 19:8 20:0 21:8 22:0 23:0 24:0 25:4 26:0 27:0 28:8 29:4 30:12 31:4 32:12 33:8 34:0 35:4 36:12 37:12 38:0 39:0 40:12 41:6.5700002 42:2.9200001 43:6.5700002 44:6.1999998 45:4.3800001 46:7.6599998 47:1.09 48:5.8400002 49:5.1100001 50:10.95 51:0.36000001 52:4.0100002 53:5.4699998 54:4.7399998 55:5.1100001 56:6.5700002 57:4.3800001 58:4.3800001 59:1.8200001 60:5.8400002 #
-0.00033705318005756778687934116511826 1:16 2:0 3:0 4:0 5:12 6:0 7:4 8:4 9:0 10:12 11:8 12:0 13:12 14:0 15:4 16:24 17:4 18:0 19:0 20:0 21:0 22:0 23:0 24:4 25:12 26:8 27:4 28:0 29:12 30:12 31:0 32:4 33:0 34:4 35:8 36:8 37:8 38:12 39:0 40:4 41:5.8299999 42:0 43:3.8800001 44:5.3400002 45:2.4300001 46:10.68 47:2.9100001 48:6.8000002 49:3.8800001 50:9.71 51:1.9400001 52:3.8800001 53:8.7399998 54:3.8800001 55:7.77 56:6.3099999 57:3.8800001 58:7.77 59:0.49000001 60:3.8800001 #
-0.00033705318005756778687934116511826 1:0 2:0 3:4 4:8 5:0 6:0 7:0 8:16 9:8 10:20 11:4 12:4 13:8 14:8 15:0 16:4 17:4 18:12 19:0 20:0 21:8 22:0 23:0 24:4 25:0 26:16 27:0 28:8 29:8 30:16 31:4 32:8 33:8 34:0 35:4 36:4 37:8 38:4 39:0 40:0 41:2.3299999 42:0 43:11.63 44:16.280001 45:6.98 46:4.6500001 47:4.6500001 48:4.6500001 49:2.3299999 50:6.98 51:2.3299999 52:6.98 53:2.3299999 54:2.3299999 55:4.6500001 56:4.6500001 57:2.3299999 58:11.63 59:2.3299999 60:0 #
-0.00033705318005756778687934116511826 1:32 2:0 3:4 4:0 5:0 6:4 7:0 8:0 9:0 10:0 11:4 12:4 13:4 14:0 15:0 16:16 17:8 18:24 19:0 20:0 21:8 22:0 23:0 24:0 25:0 26:0 27:0 28:0 29:0 30:16 31:0 32:12 33:16 34:0 35:8 36:20 37:12 38:8 39:0 40:0 41:8.4099998 42:2.5599999 43:4.9400001 44:8.4099998 45:3.6600001 46:4.1999998 47:2.9300001 48:4.02 49:7.5 50:13.35 51:1.83 52:2.9300001 53:2.74 54:4.75 55:5.3000002 56:5.48 57:4.02 58:4.3899999 59:1.46 60:7.1300001 #
-0.00033705318005756778687934116511826 1:8 2:0 3:0 4:4 5:8 6:0 7:4 8:0 9:0 10:12 11:4 12:12 13:0 14:4 15:4 16:12 17:20 18:0 19:0 20:8 21:4 22:0 23:28 24:12 25:0 26:4 27:0 28:16 29:4 30:8 31:0 32:4 33:0 34:4 35:0 36:0 37:8 38:4 39:0 40:4 41:6.9200001 42:1.4299999 43:5.0900002 44:9.7799997 45:3.05 46:4.1799998 47:1.3200001 48:4.48 49:8.04 50:8.3500004 51:2.04 52:2.6500001 53:7.23 54:4.6799998 55:8.6599998 56:6.8200002 57:5.8000002 58:6.21 59:0.92000002 60:2.3399999 #
-0.00033705318005756778687934116511826 1:8 2:0 3:0 4:4 5:0 6:28 7:0 8:4 9:4 10:4 11:4 12:0 13:12 14:0 15:8 16:20 17:4 18:0 19:0 20:0 21:4 22:0 23:0 24:20 25:12 26:4 27:0 28:12 29:12 30:8 31:0 32:0 33:8 34:8 35:4 36:4 37:0 38:0 39:0 40:4 41:5.4899998 42:1.92 43:5.2199998 44:11.54 45:3.5699999 46:5.4899998 47:1.92 48:6.5900002 49:6.04 50:9.8900003 51:3.02 52:2.47 53:5.2199998 54:4.1199999 55:5.77 56:7.1399999 57:4.9499998 58:6.5900002 59:0.81999999 60:2.2 #
-0.00033705318005756778687934116511826 1:28 2:4 3:4 4:4 5:0 6:16 7:0 8:0 9:0 10:4 11:4 12:0 13:8 14:4 15:4 16:12 17:0 18:8 19:0 20:0 21:4 22:4 23:0 24:12 25:8 26:4 27:4 28:0 29:20 30:8 31:0 32:4 33:12 34:0 35:4 36:12 37:4 38:0 39:0 40:0 41:6.5999999 42:2.4300001 43:6.5999999 44:9.3800001 45:2.78 46:6.25 47:2.78 48:5.21 49:10.76 50:7.9899998 51:1.39 52:4.5100002 53:4.8600001 54:4.8600001 55:3.8199999 56:6.9400001 57:3.8199999 58:5.5599999 59:0.69 60:2.78 #
0.0010623541744508918291400867417451 1:4 2:0 3:8 4:4 5:0 6:16 7:4 8:12 9:0 10:24 11:4 12:4 13:0 14:0 15:0 16:4 17:4 18:12 19:0 20:0 21:0 22:0 23:8 24:12 25:0 26:4 27:0 28:8 29:16 30:16 31:0 32:0 33:8 34:8 35:0 36:0 37:0 38:8 39:0 40:12 41:8.0299997 42:2.77 43:6.9299998 44:5.8200002 45:5.54 46:4.71 47:2.77 48:4.4299998 49:8.0299997 50:8.0299997 51:1.66 52:3.05 53:5.2600002 54:4.71 55:7.1999998 56:7.1999998 57:3.05 58:3.05 59:2.77 60:4.9899998 #
-0.00033705318005756778687934116511826 1:8 2:8 3:0 4:0 5:0 6:4 7:4 8:0 9:0 10:4 11:8 12:0 13:12 14:0 15:12 16:20 17:0 18:12 19:4 20:4 21:12 22:0 23:4 24:8 25:12 26:12 27:0 28:4 29:12 30:12 31:0 32:4 33:4 34:4 35:8 36:4 37:0 38:0 39:0 40:0 41:4.7399998 42:1.39 43:3.0599999 44:5.8499999 45:5.8499999 46:7.52 47:4.7399998 48:3.6199999 49:4.7399998 50:10.58 51:1.39 52:3.9000001 53:6.1300001 54:2.51 55:6.96 56:7.8000002 57:5.29 58:6.6900001 59:1.95 60:5.29 #
-0.00033705318005756778687934116511826 1:8 2:0 3:8 4:8 5:4 6:16 7:4 8:0 9:0 10:20 11:4 12:0 13:0 14:0 15:0 16:12 17:4 18:8 19:4 20:0 21:4 22:0 23:8 24:0 25:0 26:12 27:0 28:0 29:0 30:4 31:4 32:0 33:20 34:4 35:4 36:28 37:0 38:8 39:0 40:4 41:8.1800003 42:1.89 43:5.6599998 44:5.6599998 45:3.1400001 46:9.4300003 47:3.77 48:3.1400001 49:2.52 50:14.47 51:0 52:1.26 53:13.21 54:7.5500002 55:5.6599998 56:5.6599998 57:2.52 58:3.1400001 59:0 60:3.1400001 #
-0.00033705318005756778687934116511826 1:8 2:0 3:4 4:4 5:4 6:8 7:0 8:0 9:0 10:12 11:8 12:0 13:0 14:0 15:24 16:8 17:8 18:4 19:0 20:8 21:12 22:0 23:0 24:20 25:0 26:0 27:0 28:0 29:0 30:0 31:0 32:4 33:16 34:16 35:0 36:16 37:12 38:4 39:0 40:0 41:3.1099999 42:0.44 43:5.3299999 44:11.56 45:2.22 46:8 47:1.78 48:1.78 49:3.5599999 50:2.22 51:0.44 52:6.2199998 53:10.67 54:3.5599999 55:14.22 56:13.78 57:2.6700001 58:5.3299999 59:0.44 60:2.6700001 #
-0.00033705318005756778687934116511826 1:8 2:4 3:4 4:0 5:4 6:4 7:0 8:8 9:0 10:16 11:8 12:0 13:4 14:0 15:8 16:8 17:4 18:12 19:8 20:0 21:4 22:8 23:12 24:0 25:4 26:4 27:0 28:0 29:16 30:12 31:0 32:4 33:12 34:0 35:0 36:8 37:4 38:12 39:0 40:0 41:10.29 42:8.8199997 43:4.4099998 44:2.9400001 45:1.47 46:4.4099998 47:0 48:4.4099998 49:8.8199997 50:7.3499999 51:1.47 52:8.8199997 53:7.3499999 54:2.9400001 55:4.4099998 56:5.8800001 57:8.8199997 58:5.8800001 59:0 60:1.47 #
-0.00033705318005756778687934116511826 1:0 2:0 3:4 4:0 5:4 6:8 7:4 8:8 9:0 10:24 11:4 12:0 13:0 14:8 15:8 16:12 17:4 18:8 19:4 20:0 21:0 22:4 23:8 24:4 25:4 26:4 27:4 28:0 29:16 30:8 31:0 32:0 33:4 34:4 35:8 36:4 37:4 38:8 39:4 40:12 41:3.4200001 42:7.6900001 43:8.5500002 44:5.98 45:3.4200001 46:9.3999996 47:5.1300001 48:3.4200001 49:6.8400002 50:6.8400002 51:2.5599999 52:5.1300001 53:3.4200001 54:0 55:4.27 56:7.6900001 57:8.5500002 58:2.5599999 59:0.85000002 60:4.27 #
0.00096422780825084451750139891146318 1:20 2:0 3:4 4:0 5:8 6:20 7:0 8:0 9:0 10:12 11:4 12:0 13:0 14:0 15:8 16:0 17:4 18:12 19:0 20:8 21:4 22:0 23:4 24:12 25:0 26:0 27:0 28:4 29:20 30:4 31:0 32:8 33:16 34:8 35:4 36:0 37:16 38:0 39:0 40:0 41:5.1300001 42:3.29 43:6.0500002 44:6.5799999 45:4.3400002 46:9.0799999 47:1.84 48:4.8699999 49:10 50:8.6800003 51:1.1799999 52:5 53:3.6800001 54:2.6300001 55:3.55 56:8.1599998 57:4.7399998 58:6.1799998 59:1.3200001 60:3.6800001 #
-0.00033705318005756778687934116511826 1:0 2:4 3:8 4:0 5:8 6:8 7:8 8:4 9:8 10:4 11:8 12:4 13:4 14:0 15:4 16:4 17:12 18:8 19:0 20:4 21:8 22:0 23:4 24:16 25:4 26:0 27:0 28:8 29:12 30:4 31:0 32:16 33:0 34:8 35:12 36:4 37:0 38:0 39:0 40:4 41:4.8400002 42:1.61 43:6.77 44:7.7399998 45:2.9000001 46:9.0299997 47:4.1900001 48:5.48 49:6.77 50:8.3900003 51:1.61 52:3.55 53:4.52 54:2.9000001 55:4.8400002 56:5.1599998 57:5.1599998 58:10.97 59:0.31999999 60:3.23 #
-0.00033705318005756778687934116511826 1:4 2:0 3:8 4:4 5:0 6:0 7:4 8:16 9:12 10:4 11:8 12:0 13:4 14:0 15:0 16:12 17:12 18:12 19:0 20:0 21:0 22:0 23:8 24:16 25:4 26:4 27:0 28:12 29:24 30:4 31:0 32:0 33:0 34:0 35:4 36:8 37:0 38:12 39:0 40:4 41:3.47 42:1.39 43:6.9400001 44:6.25 45:4.8600001 46:8.3299999 47:2.78 48:8.3299999 49:11.11 50:8.3299999 51:1.39 52:4.1700001 53:2.0799999 54:1.39 55:7.6399999 56:6.9400001 57:4.1700001 58:8.3299999 59:0.69 60:1.39 #
-0.00033705318005756778687934116511826 1:8 2:0 3:8 4:4 5:4 6:12 7:0 8:4 9:16 10:8 11:8 12:8 13:0 14:0 15:4 16:0 17:0 18:12 19:0 20:4 21:4 22:0 23:16 24:28 25:0 26:4 27:4 28:4 29:8 30:0 31:0 32:0 33:0 34:0 35:4 36:8 37:4 38:12 39:0 40:4 41:7.6700001 42:1.92 43:5.1100001 44:9.8999996 45:4.1500001 46:5.75 47:2.5599999 48:7.3499999 49:7.3499999 50:7.3499999 51:2.24 52:3.1900001 53:5.1100001 54:2.8800001 55:5.75 56:6.71 57:4.1500001 58:6.0700002 59:0.95999998 60:3.8299999 #
-0.00033705318005756778687934116511826 1:8 2:0 3:8 4:20 5:4 6:8 7:0 8:4 9:4 10:8 11:0 12:0 13:4 14:4 15:8 16:4 17:4 18:8 19:0 20:4 21:4 22:0 23:16 24:16 25:8 26:16 27:0 28:12 29:0 30:0 31:12 32:0 33:0 34:0 35:0 36:4 37:8 38:4 39:0 40:0 41:5.5599999 42:0 43:7.4099998 44:15.74 45:5.5599999 46:5.5599999 47:0.93000001 48:9.2600002 49:8.3299999 50:10.19 51:3.7 52:0.93000001 53:0.93000001 54:3.7 55:3.7 56:7.4099998 57:5.5599999 58:2.78 59:0 60:2.78 #
-0.00033705318005756778687934116511826 1:4 2:0 3:8 4:8 5:0 6:8 7:0 8:12 9:8 10:12 11:4 12:0 13:4 14:0 15:8 16:4 17:8 18:8 19:0 20:4 21:8 22:0 23:8 24:8 25:0 26:4 27:4 28:8 29:8 30:4 31:0 32:0 33:0 34:4 35:8 36:8 37:12 38:4 39:4 40:8 41:6.25 42:0.38999999 43:6.6399999 44:8.5900002 45:4.3000002 46:6.25 47:1.95 48:6.6399999 49:9.7700005 50:9.7700005 51:0.77999997 52:3.52 53:4.6900001 54:3.1199999 55:3.1199999 56:6.6399999 57:5.4699998 58:7.0300002 59:1.5599999 60:3.52 #
-0.00033705318005756778687934116511826 1:4 2:0 3:8 4:0 5:12 6:4 7:4 8:4 9:4 10:8 11:4 12:0 13:12 14:8 15:8 16:4 17:4 18:4 19:4 20:4 21:12 22:0 23:4 24:12 25:0 26:8 27:4 28:4 29:4 30:4 31:0 32:0 33:12 34:0 35:8 36:24 37:0 38:4 39:0 40:0 41:2.05 42:0.68000001 43:7.5300002 44:5.48 45:8.2200003 46:5.48 47:5.48 48:4.1100001 49:4.79 50:9.5900002 51:2.74 52:3.4200001 53:5.48 54:3.4200001 55:6.1599998 56:10.96 57:3.4200001 58:6.8499999 59:0.68000001 60:3.4200001 #
0.0023593722604029745623654967801031 1:24 2:4 3:0 4:8 5:4 6:0 7:0 8:0 9:8 10:28 11:4 12:0 13:4 14:0 15:4 16:8 17:0 18:4 19:0 20:0 21:0 22:0 23:12 24:4 25:4 26:12 27:0 28:4 29:8 30:16 31:4 32:0 33:4 34:4 35:12 36:8 37:4 38:4 39:0 40:0 41:10.05 42:0.27000001 43:5.71 44:6.52 45:3.8 46:5.71 47:3.8 48:2.99 49:8.1499996 50:11.68 51:3.26 52:2.99 53:3.53 54:3.26 55:4.6199999 56:7.8800001 57:4.8899999 58:7.0700002 59:1.09 60:2.72 #
-0.00033705318005756778687934116511826 1:12 2:4 3:0 4:0 5:4 6:20 7:0 8:0 9:0 10:16 11:4 12:0 13:4 14:0 15:20 16:12 17:0 18:4 19:0 20:0 21:4 22:0 23:0 24:4 25:8 26:4 27:0 28:4 29:16 30:8 31:8 32:0 33:0 34:4 35:8 36:12 37:8 38:8 39:4 40:0 41:6.3400002 42:2.1099999 43:5.6300001 44:9.1499996 45:6.3400002 46:2.8199999 47:3.52 48:2.1099999 49:6.3400002 50:7.04 51:1.41 52:5.6300001 53:5.6300001 54:7.04 55:11.97 56:7.04 57:2.8199999 58:1.41 59:2.8199999 60:2.8199999 #
-0.00033705318005756778687934116511826 1:8 2:0 3:0 4:4 5:8 6:8 7:4 8:12 9:8 10:8 11:8 12:8 13:4 14:8 15:0 16:8 17:4 18:0 19:0 20:0 21:16 22:0 23:0 24:20 25:0 26:0 27:4 28:8 29:8 30:4 31:0 32:8 33:0 34:4 35:4 36:4 37:16 38:4 39:0 40:0 41:5.3800001 42:0.56999999 43:6.23 44:9.9200001 45:2.8299999 46:5.9499998 47:1.7 48:3.97 49:11.33 50:9.3500004 51:1.42 52:2.8299999 53:3.97 54:4.8200002 55:3.97 56:7.9299998 57:5.3800001 58:8.5 59:0.56999999 60:3.4000001 #
-0.00033705318005756778687934116511826 1:4 2:4 3:0 4:0 5:8 6:8 7:4 8:4 9:0 10:16 11:4 12:0 13:8 14:8 15:0 16:0 17:4 18:8 19:12 20:8 21:4 22:4 23:8 24:4 25:0 26:8 27:0 28:0 29:0 30:24 31:4 32:0 33:4 34:12 35:4 36:12 37:0 38:8 39:4 40:0 41:3.4200001 42:0.85000002 43:6.8400002 44:2.5599999 45:1.71 46:5.1300001 47:3.4200001 48:7.6900001 49:5.98 50:14.53 51:1.71 52:3.4200001 53:3.4200001 54:5.98 55:2.5599999 56:11.97 57:9.3999996 58:6.8400002 59:0.85000002 60:1.71 #
-0.00033705318005756778687934116511826 1:4 2:0 3:4 4:8 5:8 6:8 7:4 8:8 9:4 10:4 11:4 12:4 13:4 14:0 15:4 16:12 17:12 18:4 19:0 20:4 21:8 22:0 23:4 24:12 25:4 26:20 27:0 28:8 29:8 30:16 31:4 32:0 33:0 34:0 35:0 36:12 37:0 38:0 39:0 40:4 41:4.4499998 42:1.11 43:5.3499999 44:9.1300001 45:5.1199999 46:4.4499998 47:1.34 48:5.1199999 49:10.47 50:8.2399998 51:2 52:6.6799998 53:4.0100002 54:5.79 55:4.4499998 56:7.3499999 57:4.6799998 58:6.2399998 59:0.67000002 60:3.3399999 #
-0.00033705318005756778687934116511826 1:4 2:0 3:4 4:4 5:12 6:4 7:4 8:12 9:0 10:8 11:4 12:8 13:0 14:4 15:4 16:20 17:0 18:8 19:0 20:0 21:8 22:0 23:4 24:0 25:8 26:0 27:0 28:12 29:24 30:12 31:0 32:8 33:8 34:0 35:0 36:4 37:0 38:4 39:0 40:8 41:7.3899999 42:1.2 43:6.1900001 44:5.5900002 45:4.5900002 46:5.5900002 47:3.1900001 48:5.3899999 49:5.1900001 50:10.98 51:1.4 52:5.1900001 53:5.5900002 54:3.3900001 55:2.99 56:7.7800002 57:6.1900001 58:8.7799997 59:0.80000001 60:2.5899999 #
-0.00033705318005756778687934116511826 1:8 2:0 3:8 4:0 5:4 6:4 7:0 8:0 9:0 10:16 11:8 12:4 13:12 14:4 15:0 16:16 17:16 18:0 19:0 20:0 21:12 22:4 23:8 24:8 25:0 26:8 27:0 28:8 29:4 30:20 31:0 32:8 33:4 34:0 35:0 36:8 37:0 38:4 39:0 40:4 41:4.6599998 42:2.3299999 43:5.8200002 44:6.6599998 45:4.4899998 46:9.3199997 47:2.6600001 48:4.6599998 49:4.8299999 50:7.3200002 51:3.3299999 52:3.6600001 53:4.6599998 54:3.49 55:7.3200002 56:6.3200002 57:4.1599998 58:9.4799995 59:1.16 60:3.6600001 #
-0.00033705318005756778687934116511826 1:4 2:4 3:0 4:0 5:4 6:4 7:4 8:8 9:4 10:12 11:12 12:8 13:8 14:0 15:8 16:8 17:4 18:8 19:0 20:0 21:0 22:0 23:4 24:4 25:0 26:16 27:4 28:0 29:20 30:4 31:0 32:0 33:0 34:4 35:0 36:16 37:20 38:0 39:4 40:4 41:8.4200001 42:0.99000001 43:4.9499998 44:5.4499998 45:1.98 46:5.9400001 47:6.4400001 48:6.9299998 49:5.9400001 50:8.9099998 51:2.48 52:1.98 53:5.9400001 54:6.4400001 55:4.9499998 56:4.9499998 57:4.46 58:7.9200001 59:1.98 60:2.97 #
0.0010770996390708944927261381252492 1:12 2:12 3:12 4:4 5:0 6:0 7:8 8:0 9:0 10:28 11:4 12:0 13:0 14:0 15:0 16:0 17:0 18:12 19:4 20:4 21:0 22:4 23:8 24:4 25:4 26:8 27:4 28:20 29:0 30:12 31:8 32:8 33:4 34:4 35:0 36:4 37:4 38:4 39:0 40:0 41:5.5 42:0.94 43:6.5700002 44:6.9699998 45:7.0999999 46:4.96 47:2.28 48:6.0300002 49:5.23 50:10.72 51:2.01 52:4.96 53:6.1700001 54:2.55 55:4.29 56:6.9699998 57:6.5700002 58:4.1599998 59:1.47 60:4.5599999 #
-0.00033705318005756778687934116511826 1:12 2:0 3:8 4:16 5:8 6:0 7:0 8:0 9:8 10:20 11:4 12:0 13:0 14:4 15:8 16:4 17:0 18:8 19:0 20:0 21:8 22:0 23:0 24:4 25:0 26:8 27:0 28:4 29:0 30:8 31:0 32:8 33:8 34:12 35:8 36:28 37:4 38:0 39:0 40:0 41:6.0799999 42:0.56 43:6.0100002 44:5.0799999 45:1.55 46:10.79 47:3.4100001 48:2.54 49:3.1600001 50:10.29 51:2.8499999 52:0.87 53:8.3100004 54:10.97 55:6.6999998 56:7.4400001 57:4.0900002 58:7.1300001 59:0.37 60:1.8 #
-0.00033705318005756778687934116511826 1:4 2:0 3:0 4:4 5:4 6:16 7:0 8:4 9:4 10:8 11:8 12:4 13:4 14:4 15:8 16:8 17:8 18:8 19:0 20:4 21:0 22:0 23:8 24:12 25:8 26:4 27:4 28:4 29:0 30:8 31:4 32:8 33:12 34:8 35:4 36:8 37:0 38:4 39:0 40:4 41:5.21 42:3.79 43:5.21 44:6 45:6.1599998 46:7.1100001 47:4.1100001 48:5.5300002 49:6 50:9 51:2.53 52:4.4200001 53:3.95 54:4.4200001 55:6 56:4.1100001 57:6.3200002 58:6.6399999 59:1.26 60:2.21 #
-0.00033705318005756778687934116511826 1:8 2:0 3:0 4:8 5:4 6:0 7:0 8:4 9:8 10:16 11:12 12:4 13:8 14:0 15:0 16:20 17:4 18:4 19:0 20:0 21:8 22:0 23:4 24:8 25:4 26:12 27:0 28:8 29:4 30:0 31:4 32:0 33:0 34:4 35:12 36:12 37:0 38:12 39:0 40:8 41:4.6799998 42:0.33000001 43:5.6900001 44:3.3399999 45:6.02 46:4.0100002 47:6.6900001 48:4.3499999 49:6.02 50:9.3599997 51:1.34 52:3.3399999 53:6.3499999 54:5.3499999 55:4.0100002 56:9.3599997 57:6.02 58:5.6900001 59:1 60:7.02 #
-0.00033705318005756778687934116511826 1:4 2:0 3:0 4:12 5:4 6:0 7:4 8:0 9:4 10:12 11:4 12:0 13:16 14:8 15:4 16:4 17:8 18:16 19:0 20:0 21:4 22:0 23:8 24:8 25:0 26:0 27:0 28:0 29:0 30:12 31:4 32:16 33:12 34:0 35:0 36:24 37:12 38:0 39:0 40:0 41:6.4000001 42:1.96 43:5.8899999 44:6.5799999 45:4.3600001 46:3.9300001 47:3.3299999 48:5.7199998 49:6.75 50:9.4799995 51:2.3099999 52:4.1799998 53:4.4400001 54:4.3600001 55:5.7199998 56:7.5100002 57:6.0599999 58:6.1500001 59:0.94 60:3.9300001 #
-0.00033705318005756778687934116511826 1:4 2:0 3:8 4:0 5:8 6:4 7:4 8:4 9:0 10:16 11:4 12:0 13:4 14:0 15:4 16:32 17:4 18:4 19:0 20:0 21:8 22:0 23:20 24:4 25:8 26:4 27:0 28:16 29:4 30:12 31:0 32:0 33:4 34:0 35:4 36:8 37:4 38:4 39:0 40:0 41:8.6999998 42:1.21 43:4.8299999 44:5.0700002 45:3.6199999 46:6.04 47:2.9000001 48:4.8299999 49:7 50:8.9399996 51:2.9000001 52:4.3499999 53:4.5900002 54:3.1400001 55:3.8599999 56:10.63 57:6.04 58:8.4499998 59:0.72000003 60:2.1700001 #
-0.00033705318005756778687934116511826 1:4 2:0 3:0 4:4 5:12 6:0 7:4 8:4 9:12 10:16 11:4 12:0 13:8 14:4 15:12 16:4 17:4 18:8 19:0 20:0 21:4 22:0 23:0 24:0 25:0 26:16 27:4 28:8 29:4 30:4 31:0 32:4 33:4 34:4 35:16 36:20 37:8 38:0 39:0 40:4 41:3.45 42:3.45 43:3.45 44:3.45 45:5.1700001 46:3.45 47:3.45 48:8.6199999 49:8.6199999 50:10.34 51:0 52:5.1700001 53:0 54:3.45 55:8.6199999 56:10.34 57:6.9000001 58:6.9000001 59:0 60:5.1700001 #
-0.00033705318005756778687934116511826 1:0 2:0 3:0 4:12 5:0 6:8 7:4 8:4 9:4 10:4 11:12 12:0 13:0 14:12 15:4 16:4 17:4 18:8 19:4 20:16 21:4 22:0 23:0 24:20 25:4 26:16 27:0 28:0 29:12 30:8 31:4 32:0 33:4 34:0 35:4 36:0 37:4 38:12 39:4 40:4 41:7.4299998 42:1.9400001 43:6.1399999 44:6.79 45:5.4899998 46:5.6500001 47:2.5799999 48:6.1399999 49:5.8200002 50:8.5600004 51:4.52 52:4.1999998 53:3.8800001 54:3.72 55:4.6799998 56:7.1100001 57:4.3600001 58:6.9499998 59:0.81 60:3.23 #
-0.00033705318005756778687934116511826 1:4 2:4 3:0 4:4 5:4 6:4 7:4 8:8 9:4 10:4 11:4 12:8 13:0 14:4 15:4 16:28 17:0 18:0 19:0 20:12 21:0 22:0 23:4 24:16 25:4 26:4 27:0 28:12 29:4 30:24 31:0 32:0 33:4 34:0 35:8 36:16 37:4 38:0 39:0 40:0 41:4.6700001 42:1 43:9.6700001 44:7.1700001 45:3.1700001 46:5.5 47:1.33 48:6.6700001 49:5.1700001 50:13.17 51:1 52:6.5 53:2.5 54:4.5 55:5.1700001 56:7.1700001 57:5.3299999 58:4.6700001 59:1.33 60:4.3299999 #
-0.00033705318005756778687934116511826 1:0 2:4 3:0 4:0 5:12 6:0 7:4 8:8 9:0 10:4 11:8 12:4 13:4 14:4 15:8 16:8 17:8 18:20 19:4 20:0 21:4 22:0 23:4 24:0 25:12 26:16 27:0 28:8 29:8 30:0 31:4 32:4 33:4 34:4 35:4 36:4 37:16 38:0 39:4 40:4 41:4.3099999 42:3.77 43:3.5 44:5.1199999 45:4.3099999 46:9.4300003 47:2.7 48:4.5799999 49:7.2800002 50:5.3899999 51:1.35 52:5.9299998 53:5.6599998 54:2.1600001 55:4.5799999 56:9.6999998 57:6.4699998 58:6.4699998 59:1.08 60:6.1999998 #
-0.00033705318005756778687934116511826 1:0 2:0 3:16 4:12 5:4 6:4 7:0 8:12 9:0 10:12 11:4 12:0 13:8 14:4 15:8 16:8 17:4 18:4 19:0 20:0 21:4 22:0 23:16 24:20 25:0 26:12 27:4 28:0 29:0 30:0 31:0 32:12 33:4 34:0 35:4 36:24 37:0 38:0 39:0 40:0 41:9.1700001 42:1.34 43:6.4099998 44:9.5299997 45:3.03 46:5.6100001 47:2.6700001 48:3.1199999 49:9.2600002 50:9.6199999 51:1.51 52:4.7199998 53:3.1199999 54:5.8800001 55:6.3200002 56:6.9499998 57:2.9400001 58:4.0999999 59:0.62 60:4.0999999 #
-0.00033705318005756778687934116511826 1:0 2:0 3:8 4:12 5:0 6:4 7:4 8:4 9:0 10:20 11:4 12:8 13:12 14:4 15:4 16:0 17:4 18:8 19:0 20:4 21:4 22:0 23:16 24:12 25:4 26:0 27:0 28:8 29:0 30:20 31:0 32:12 33:4 34:0 35:4 36:8 37:4 38:4 39:0 40:0 41:2.5799999 42:0.86000001 43:7.73 44:3.8599999 45:3.4300001 46:1.29 47:6.0100002 48:9.0100002 49:6.0100002 50:11.59 51:0 52:7.73 53:6.0100002 54:4.29 55:5.1500001 56:7.3000002 57:7.3000002 58:3 59:1.29 60:5.5799999 #
-0.00033705318005756778687934116511826 1:0 2:0 3:8 4:12 5:4 6:4 7:0 8:8 9:20 10:16 11:4 12:8 13:8 14:4 15:0 16:4 17:0 18:0 19:0 20:0 21:12 22:0 23:4 24:8 25:8 26:12 27:0 28:4 29:12 30:4 31:0 32:12 33:4 34:8 35:4 36:4 37:0 38:0 39:0 40:4 41:5.9499998 42:0 43:4.1700001 44:7.1399999 45:6.5500002 46:3.5699999 47:1.79 48:4.7600002 49:10.71 50:12.5 51:0.60000002 52:5.9499998 53:2.3800001 54:5.9499998 55:3.5699999 56:6.5500002 57:4.7600002 58:10.12 59:0.60000002 60:2.3800001 #
-0.00033705318005756778687934116511826 1:8 2:0 3:12 4:12 5:0 6:0 7:0 8:4 9:4 10:12 11:4 12:4 13:0 14:12 15:16 16:0 17:0 18:8 19:4 20:0 21:0 22:0 23:8 24:8 25:0 26:4 27:0 28:0 29:8 30:16 31:4 32:4 33:4 34:12 35:8 36:4 37:4 38:12 39:0 40:4 41:10 42:0 43:5 44:7.5 45:5 46:7.5 47:2.5 48:5 49:2.5 50:17.5 51:2.5 52:2.5 53:2.5 54:5 55:7.5 56:10 57:2.5 58:0 59:0 60:5 #
-0.00033705318005756778687934116511826 1:4 2:0 3:4 4:20 5:0 6:12 7:0 8:0 9:0 10:16 11:8 12:0 13:20 14:0 15:0 16:8 17:4 18:4 19:0 20:0 21:0 22:4 23:0 24:16 25:8 26:8 27:4 28:8 29:12 30:16 31:4 32:0 33:0 34:4 35:4 36:8 37:4 38:0 39:0 40:0 41:8.0799999 42:6.5500002 43:3.28 44:7.6399999 45:3.0599999 46:8.0799999 47:2.6199999 48:3.28 49:6.3299999 50:10.26 51:1.97 52:5.6799998 53:8.0799999 54:4.5900002 55:2.8399999 56:7.4200001 57:3.28 58:4.1500001 59:0.44 60:2.4000001 #
-0.00033705318005756778687934116511826 1:0 2:12 3:0 4:4 5:4 6:8 7:4 8:8 9:4 10:8 11:4 12:4 13:8 14:4 15:8 16:12 17:4 18:0 19:0 20:4 21:0 22:0 23:8 24:4 25:4 26:12 27:0 28:4 29:4 30:16 31:4 32:8 33:8 34:8 35:4 36:8 37:0 38:4 39:4 40:0 41:3.1700001 42:4.75 43:4.4899998 44:5.2800002 45:6.8600001 46:3.6900001 47:3.1700001 48:4.2199998 49:7.3899999 50:10.82 51:1.58 52:3.6900001 53:5.2800002 54:5.2800002 55:7.3899999 56:6.5999999 57:4.2199998 58:4.4899998 59:3.1700001 60:4.4899998 #
-0.00033705318005756778687934116511826 1:4 2:4 3:0 4:8 5:0 6:12 7:8 8:4 9:8 10:16 11:4 12:4 13:4 14:0 15:12 16:4 17:0 18:8 19:0 20:0 21:4 22:8 23:4 24:4 25:4 26:12 27:0 28:8 29:4 30:8 31:4 32:4 33:4 34:0 35:0 36:16 37:4 38:4 39:0 40:8 41:4.1199999 42:3.3 43:4.4000001 44:4.4000001 45:5.2199998 46:3.02 47:3.3 48:5.2199998 49:7.6900001 50:16.209999 51:1.37 52:5.2199998 53:4.9499998 54:4.4000001 55:5.2199998 56:8.5200005 57:6.04 58:5.77 59:0 60:1.65 #
-0.00033705318005756778687934116511826 1:8 2:4 3:8 4:4 5:0 6:20 7:0 8:0 9:0 10:4 11:8 12:4 13:4 14:0 15:0 16:4 17:8 18:20 19:0 20:4 21:4 22:0 23:0 24:0 25:8 26:4 27:4 28:0 29:0 30:8 31:4 32:0 33:24 34:4 35:12 36:16 37:12 38:0 39:0 40:0 41:7.1999998 42:2.0899999 43:4.5300002 44:6.5 45:3.25 46:7.1999998 47:2.79 48:2.6700001 49:4.7600002 50:11.61 51:1.63 52:2.5599999 53:10.45 54:4.7600002 55:6.04 56:9.0600004 57:3.5999999 58:4.5300002 59:2.21 60:2.5599999 #
-0.00033705318005756778687934116511826 1:0 2:0 3:4 4:16 5:0 6:8 7:4 8:4 9:12 10:12 11:8 12:8 13:4 14:0 15:0 16:8 17:0 18:8 19:0 20:4 21:8 22:0 23:0 24:12 25:16 26:0 27:4 28:0 29:8 30:16 31:4 32:16 33:8 34:4 35:4 36:0 37:0 38:0 39:0 40:0 41:7.75 42:1.48 43:4.0599999 44:6.27 45:2.5799999 46:5.54 47:3.3199999 48:4.0599999 49:6.27 50:7.3800001 51:2.95 52:3.6900001 53:5.54 54:6.27 55:7.75 56:12.55 57:3.3199999 58:7.75 59:0 60:1.48 #
-0.00033705318005756778687934116511826 1:4 2:0 3:4 4:16 5:0 6:4 7:0 8:8 9:8 10:16 11:4 12:0 13:8 14:0 15:0 16:8 17:4 18:16 19:0 20:0 21:4 22:0 23:8 24:8 25:8 26:8 27:4 28:4 29:4 30:4 31:0 32:0 33:16 34:4 35:4 36:8 37:8 38:0 39:4 40:4 41:5.7399998 42:6.5599999 43:6.5599999 44:8.1999998 45:4.9200001 46:4.0999999 47:4.0999999 48:1.64 49:10.66 50:8.1999998 51:0.81999999 52:2.46 53:6.5599999 54:4.9200001 55:9.0200005 56:1.64 57:4.0999999 58:4.0999999 59:2.46 60:3.28 #
-0.00033705318005756778687934116511826 1:4 2:0 3:0 4:0 5:4 6:12 7:0 8:4 9:12 10:16 11:8 12:8 13:16 14:0 15:0 16:4 17:4 18:8 19:0 20:0 21:0 22:4 23:16 24:16 25:0 26:8 27:0 28:8 29:4 30:8 31:8 32:8 33:0 34:0 35:8 36:0 37:0 38:8 39:0 40:4 41:2.6300001 42:0 43:2.6300001 44:13.16 45:2.6300001 46:15.79 47:0 48:2.6300001 49:5.2600002 50:7.8899999 51:5.2600002 52:7.8899999 53:0 54:5.2600002 55:0 56:5.2600002 57:5.2600002 58:10.53 59:2.6300001 60:5.2600002 #
-0.00033705318005756778687934116511826 1:4 2:12 3:0 4:0 5:4 6:0 7:0 8:8 9:24 10:4 11:4 12:0 13:4 14:8 15:8 16:12 17:0 18:8 19:0 20:0 21:8 22:0 23:8 24:4 25:8 26:4 27:0 28:8 29:4 30:24 31:4 32:16 33:4 34:4 35:0 36:4 37:0 38:0 39:0 40:0 41:4.29 42:1.26 43:5.6700001 44:6.9400001 45:6.4299998 46:2.9000001 47:2.52 48:7.4400001 49:6.1799998 50:13.62 51:2.27 52:6.8099999 53:3.28 54:2.02 55:4.4099998 56:9.46 57:5.1700001 58:3.9100001 59:0.63 60:4.79 #
-0.00033705318005756778687934116511826 1:4 2:0 3:4 4:8 5:8 6:4 7:0 8:8 9:8 10:12 11:4 12:8 13:8 14:0 15:0 16:8 17:4 18:8 19:0 20:4 21:8 22:0 23:8 24:8 25:0 26:8 27:0 28:8 29:16 30:0 31:0 32:4 33:4 34:0 35:12 36:12 37:12 38:0 39:0 40:0 41:3.49 42:0.87 43:13.97 44:23.58 45:2.1800001 46:5.6799998 47:1.3099999 48:3.49 49:3.0599999 50:6.5500002 51:0 52:5.6799998 53:4.8000002 54:1.75 55:3.0599999 56:5.6799998 57:2.6199999 58:8.7299995 59:0.87 60:2.6199999 #
-0.00033705318005756778687934116511826 1:16 2:4 3:4 4:4 5:4 6:0 7:4 8:0 9:0 10:8 11:4 12:0 13:4 14:8 15:4 16:16 17:12 18:8 19:0 20:0 21:0 22:4 23:8 24:16 25:0 26:0 27:0 28:12 29:12 30:12 31:0 32:4 33:0 34:8 35:0 36:8 37:4 38:4 39:4 40:4 41:5.6900001 42:2.0899999 43:6.5 44:6.6199999 45:4.4099998 46:5.8099999 47:3.1400001 48:7.4299998 49:9.29 50:8.8299999 51:3.1400001 52:3.72 53:4.5300002 54:3.3699999 55:4.8800001 56:6.3899999 57:4.6500001 58:4.9899998 59:1.05 60:3.48 #
-0.00033705318005756778687934116511826 1:8 2:0 3:8 4:4 5:8 6:12 7:0 8:8 9:8 10:12 11:4 12:8 13:0 14:0 15:0 16:4 17:4 18:4 19:0 20:8 21:4 22:0 23:4 24:8 25:0 26:0 27:0 28:0 29:20 30:8 31:0 32:0 33:4 34:0 35:8 36:20 37:16 38:8 39:0 40:0 41:3.54 42:0.88 43:6.1900001 44:4.4200001 45:5.3099999 46:2.6500001 47:1.77 48:6.1900001 49:10.62 50:13.27 51:0 52:3.54 53:4.4200001 54:10.62 55:3.54 56:7.0799999 57:4.4200001 58:7.0799999 59:1.77 60:2.6500001 #
-0.00033705318005756778687934116511826 1:8 2:4 3:0 4:0 5:0 6:12 7:4 8:4 9:0 10:16 11:12 12:0 13:0 14:0 15:4 16:16 17:4 18:8 19:0 20:8 21:8 22:0 23:0 24:0 25:0 26:8 27:0 28:4 29:20 30:12 31:0 32:4 33:4 34:4 35:16 36:0 37:0 38:8 39:0 40:12 41:11.11 42:0 43:11.11 44:5.5599999 45:2.3800001 46:9.5200005 47:2.3800001 48:2.3800001 49:3.97 50:6.3499999 51:0.79000002 52:2.3800001 53:7.9400001 54:3.97 55:7.9400001 56:10.32 57:0.79000002 58:3.97 59:0.79000002 60:6.3499999 #
-0.00033705318005756778687934116511826 1:28 2:4 3:0 4:0 5:4 6:0 7:0 8:0 9:4 10:16 11:8 12:0 13:0 14:0 15:4 16:16 17:4 18:12 19:0 20:0 21:12 22:8 23:0 24:4 25:0 26:4 27:4 28:8 29:0 30:8 31:0 32:8 33:12 34:8 35:4 36:0 37:4 38:8 39:4 40:4 41:9.0900002 42:6.6100001 43:4.1300001 44:4.96 45:3.3099999 46:6.6100001 47:0.82999998 48:0.82999998 49:1.65 50:11.57 51:3.3099999 52:2.48 53:10.74 54:7.4400001 55:4.96 56:4.96 57:4.96 58:6.6100001 59:0.82999998 60:4.1300001 #
-0.00033705318005756778687934116511826 1:0 2:0 3:4 4:16 5:0 6:0 7:0 8:4 9:4 10:24 11:4 12:4 13:0 14:4 15:8 16:12 17:8 18:8 19:0 20:0 21:0 22:0 23:4 24:4 25:4 26:8 27:0 28:4 29:8 30:12 31:0 32:4 33:16 34:4 35:8 36:12 37:4 38:8 39:0 40:0 41:5.5999999 42:1.96 43:7.5599999 44:6.7199998 45:7.5599999 46:6.1599998 47:3.9200001 48:3.3599999 49:3.9200001 50:8.96 51:2.8 52:2.8 53:5.8800001 54:5.04 55:5.04 56:6.4400001 57:6.1599998 58:4.48 59:1.96 60:3.6400001 #
-0.00033705318005756778687934116511826 1:16 2:0 3:8 4:4 5:8 6:12 7:0 8:0 9:4 10:4 11:8 12:4 13:8 14:0 15:0 16:12 17:4 18:8 19:0 20:0 21:16 22:0 23:0 24:16 25:0 26:0 27:0 28:0 29:20 30:4 31:4 32:0 33:4 34:8 35:4 36:20 37:4 38:0 39:0 40:0 41:5.5599999 42:0.79000002 43:5.5599999 44:9.5200005 45:1.59 46:7.1399999 47:1.59 48:7.9400001 49:7.1399999 50:7.9400001 51:3.1700001 52:3.1700001 53:5.5599999 54:3.1700001 55:7.1399999 56:7.1399999 57:3.1700001 58:11.11 59:0 60:1.59 #
0.0020689426922961160967839866486884 1:16 2:0 3:0 4:0 5:0 6:20 7:0 8:0 9:0 10:28 11:4 12:0 13:8 14:0 15:4 16:4 17:0 18:8 19:8 20:0 21:8 22:0 23:4 24:12 25:4 26:8 27:8 28:8 29:8 30:4 31:4 32:4 33:8 34:0 35:0 36:8 37:4 38:4 39:4 40:0 41:5.8499999 42:2.3399999 43:4.0900002 44:5.8499999 45:2.3399999 46:14.04 47:7.02 48:1.75 49:2.3399999 50:7.02 51:0.57999998 52:3.51 53:3.51 54:4.6799998 55:6.4299998 56:9.9399996 57:6.4299998 58:8.7700005 59:1.75 60:1.75 #
-0.00033705318005756778687934116511826 1:8 2:4 3:8 4:8 5:8 6:4 7:0 8:4 9:8 10:12 11:4 12:0 13:12 14:8 15:4 16:0 17:0 18:4 19:4 20:0 21:4 22:4 23:4 24:4 25:4 26:4 27:0 28:4 29:8 30:4 31:0 32:8 33:0 34:8 35:16 36:4 37:8 38:8 39:0 40:8 41:2.8599999 42:2.8599999 43:0 44:2.8599999 45:14.29 46:5.71 47:5.71 48:8.5699997 49:5.71 50:11.43 51:0 52:8.5699997 53:5.71 54:5.71 55:2.8599999 56:11.43 57:0 58:5.71 59:0 60:0 #
-0.00033705318005756778687934116511826 1:12 2:0 3:20 4:0 5:4 6:4 7:0 8:12 9:4 10:12 11:4 12:0 13:4 14:0 15:0 16:4 17:0 18:16 19:0 20:4 21:12 22:0 23:8 24:8 25:0 26:4 27:4 28:8 29:12 30:0 31:0 32:4 33:4 34:4 35:0 36:4 37:8 38:4 39:4 40:12 41:10.67 42:4 43:6.6700001 44:5.3299999 45:0 46:12 47:5.3299999 48:5.3299999 49:8 50:1.33 51:2.6700001 52:0 53:4 54:5.3299999 55:5.3299999 56:9.3299999 57:0 58:5.3299999 59:1.33 60:8 #
-0.00033705318005756778687934116511826 1:8 2:0 3:0 4:8 5:4 6:4 7:0 8:8 9:20 10:12 11:12 12:4 13:4 14:0 15:4 16:0 17:0 18:8 19:0 20:4 21:12 22:0 23:0 24:8 25:12 26:28 27:0 28:0 29:0 30:0 31:0 32:0 33:8 34:12 35:12 36:4 37:4 38:0 39:0 40:0 41:7.8299999 42:0 43:5.2199998 44:6.96 45:1.74 46:6.0900002 47:4.3499999 48:1.74 49:6.96 50:8.6999998 51:2.6099999 52:2.6099999 53:10.43 54:2.6099999 55:12.17 56:3.48 57:4.3499999 58:5.2199998 59:1.74 60:5.2199998 #
-0.00033705318005756778687934116511826 1:8 2:0 3:4 4:16 5:0 6:8 7:4 8:4 9:4 10:8 11:4 12:4 13:0 14:4 15:12 16:4 17:0 18:8 19:0 20:8 21:4 22:0 23:8 24:8 25:4 26:0 27:4 28:4 29:4 30:20 31:0 32:0 33:0 34:24 35:0 36:4 37:16 38:0 39:0 40:0 41:4.0100002 42:0.52999997 43:6.1500001 44:9.3599997 45:4.8099999 46:3.21 47:1.34 48:5.8800001 49:5.8800001 50:7.2199998 51:3.48 52:6.6799998 53:5.0799999 54:5.6100001 55:5.0799999 56:12.83 57:6.6799998 58:2.9400001 59:0.27000001 60:2.9400001 #
-0.00033705318005756778687934116511826 1:28 2:8 3:4 4:4 5:4 6:4 7:0 8:0 9:4 10:24 11:4 12:0 13:4 14:4 15:0 16:4 17:4 18:0 19:0 20:0 21:12 22:4 23:0 24:12 25:0 26:0 27:4 28:16 29:0 30:4 31:4 32:16 33:0 34:4 35:4 36:8 37:4 38:4 39:0 40:4 41:10.81 42:0 43:5.4099998 44:5.4099998 45:2.7 46:5.4099998 47:2.7 48:8.1099997 49:5.4099998 50:8.1099997 51:2.7 52:5.4099998 53:8.1099997 54:10.81 55:2.7 56:2.7 57:2.7 58:8.1099997 59:0 60:2.7 #
-0.00033705318005756778687934116511826 1:4 2:0 3:4 4:12 5:12 6:0 7:0 8:8 9:4 10:8 11:4 12:8 13:0 14:8 15:4 16:8 17:8 18:8 19:0 20:0 21:0 22:0 23:4 24:4 25:4 26:0 27:8 28:12 29:4 30:12 31:0 32:8 33:4 34:4 35:0 36:16 37:4 38:8 39:0 40:8 41:5.6900001 42:2.26 43:5.3299999 44:6.4200001 45:5.77 46:2.55 47:1.9 48:7.23 49:7.3000002 50:14.67 51:1.75 52:5.6900001 53:2.9200001 54:4.4499998 55:3.72 56:8.1800003 57:5.04 58:4.4499998 59:1.02 60:3.6500001 #
-0.00033705318005756778687934116511826 1:4 2:8 3:4 4:12 5:4 6:4 7:0 8:8 9:12 10:12 11:4 12:4 13:4 14:0 15:0 16:12 17:0 18:4 19:4 20:0 21:0 22:0 23:4 24:8 25:8 26:0 27:0 28:8 29:8 30:20 31:0 32:4 33:0 34:0 35:0 36:24 37:0 38:8 39:4 40:4 41:4.1500001 42:1.55 43:6.2199998 44:6.2199998 45:3.1099999 46:4.6599998 47:1.55 48:7.77 49:6.7399998 50:9.8400002 51:2.0699999 52:6.7399998 53:3.1099999 54:3.6300001 55:3.1099999 56:8.8100004 57:8.29 58:8.8100004 59:2.0699999 60:1.55 #
-0.00033705318005756778687934116511826 1:0 2:0 3:0 4:0 5:4 6:16 7:4 8:0 9:4 10:32 11:12 12:0 13:4 14:8 15:4 16:0 17:8 18:4 19:0 20:0 21:4 22:0 23:4 24:0 25:0 26:4 27:0 28:8 29:4 30:12 31:0 32:0 33:4 34:12 35:12 36:20 37:4 38:4 39:0 40:8 41:5.0300002 42:1.91 43:7.3400002 44:6.0300002 45:2.9100001 46:16.08 47:1.41 48:4.52 49:6.4299998 50:6.8299999 51:0.89999998 52:3.6199999 53:8.3400002 54:3.8199999 55:4.52 56:6.3299999 57:4.9200001 58:6.3299999 59:0.30000001 60:2.4100001 #
-0.00033705318005756778687934116511826 1:12 2:0 3:8 4:0 5:4 6:8 7:0 8:8 9:4 10:8 11:4 12:0 13:4 14:4 15:4 16:12 17:4 18:12 19:0 20:4 21:4 22:0 23:4 24:8 25:4 26:12 27:0 28:4 29:4 30:12 31:0 32:0 33:8 34:8 35:0 36:8 37:8 38:0 39:8 40:8 41:4.0900002 42:1.79 43:5.6300001 44:8.1800003 45:5.3699999 46:4.3499999 47:4.0900002 48:6.3899999 49:7.4200001 50:12.53 51:1.28 52:4.3499999 53:3.8399999 54:5.1199999 55:2.8099999 56:7.1599998 57:4.5999999 58:4.3499999 59:3.0699999 60:3.5799999 #
-0.00033705318005756778687934116511826 1:16 2:8 3:4 4:0 5:0 6:12 7:0 8:4 9:0 10:24 11:4 12:0 13:8 14:4 15:0 16:4 17:4 18:4 19:0 20:4 21:12 22:4 23:0 24:0 25:4 26:4 27:0 28:4 29:12 30:4 31:4 32:8 33:12 34:8 35:8 36:4 37:0 38:4 39:0 40:8 41:7.4200001 42:1.9400001 43:4.1900001 44:3.23 45:5.1599998 46:9.3500004 47:2.5799999 48:1.9400001 49:4.1900001 50:9.3500004 51:0.97000003 52:4.52 53:7.4200001 54:7.0999999 55:2.9000001 56:9.6800003 57:4.1900001 58:6.1300001 59:3.8699999 60:3.8699999 #
-5.7120282525527192596381809153172e-05 1:16 2:0 3:8 4:8 5:4 6:12 7:8 8:0 9:4 10:20 11:4 12:0 13:0 14:0 15:4 16:8 17:4 18:0 19:0 20:0 21:8 22:16 23:0 24:8 25:4 26:0 27:0 28:0 29:12 30:8 31:0 32:4 33:8 34:4 35:0 36:20 37:4 38:4 39:0 40:0 41:16.07 42:1.3099999 43:3.28 44:5.25 45:0.98000002 46:16.389999 47:1.64 48:1.64 49:3.28 50:11.15 51:1.3099999 52:1.97 53:9.1800003 54:2.3 55:5.9000001 56:11.8 57:1.3099999 58:3.28 59:0 60:1.97 #
-0.00033705318005756778687934116511826 1:16 2:0 3:0 4:0 5:0 6:4 7:0 8:4 9:0 10:20 11:4 12:8 13:0 14:0 15:8 16:16 17:0 18:20 19:0 20:0 21:20 22:4 23:16 24:8 25:4 26:4 27:0 28:8 29:4 30:4 31:0 32:8 33:0 34:4 35:0 36:4 37:0 38:8 39:0 40:4 41:3.28 42:8.1999998 43:4.9200001 44:6.5599999 45:0 46:4.9200001 47:6.5599999 48:1.64 49:8.1999998 50:3.28 51:1.64 52:4.9200001 53:6.5599999 54:0 55:3.28 56:13.11 57:14.75 58:4.9200001 59:0 60:3.28 #
-0.00033705318005756778687934116511826 1:24 2:12 3:0 4:0 5:0 6:4 7:0 8:0 9:0 10:12 11:4 12:0 13:8 14:0 15:0 16:16 17:4 18:16 19:0 20:0 21:12 22:0 23:20 24:4 25:4 26:12 27:0 28:4 29:0 30:4 31:0 32:0 33:8 34:12 35:0 36:4 37:0 38:12 39:0 40:4 41:15.13 42:1.4299999 43:3.6800001 44:5.9299998 45:2.04 46:7.1599998 47:1.02 48:4.29 49:4.9099998 50:7.5700002 51:2.04 52:1.4299999 53:6.54 54:2.8599999 55:5.3200002 56:5.3200002 57:9.6099997 58:7.98 59:2.45 60:3.27 #
-0.00033705318005756778687934116511826 1:12 2:0 3:0 4:0 5:0 6:4 7:4 8:4 9:0 10:44 11:8 12:4 13:8 14:0 15:0 16:0 17:8 18:4 19:0 20:0 21:4 22:0 23:4 24:8 25:12 26:4 27:4 28:4 29:16 30:20 31:0 32:4 33:0 34:4 35:8 36:0 37:0 38:8 39:0 40:0 41:8.3299999 42:5.21 43:1.04 44:5.21 45:3.1199999 46:8.3299999 47:2.0799999 48:5.21 49:3.1199999 50:10.42 51:3.1199999 52:5.21 53:6.25 54:4.1700001 55:3.1199999 56:11.46 57:6.25 58:6.25 59:1.04 60:1.04 #
-0.00031935264195351135974032530384648 1:16 2:4 3:8 4:0 5:12 6:0 7:0 8:8 9:0 10:20 11:4 12:0 13:0 14:0 15:4 16:8 17:8 18:8 19:0 20:0 21:8 22:12 23:4 24:0 25:0 26:20 27:0 28:8 29:4 30:8 31:0 32:4 33:8 34:0 35:12 36:0 37:4 38:4 39:0 40:4 41:8.5699997 42:11.43 43:2.8599999 44:0 45:0 46:11.43 47:0 48:5.71 49:11.43 50:5.71 51:5.71 52:2.8599999 53:2.8599999 54:5.71 55:5.71 56:11.43 57:5.71 58:2.8599999 59:0 60:0 #
0.0023593722604029745623654967801031 1:4 2:0 3:4 4:8 5:0 6:24 7:4 8:0 9:4 10:8 11:4 12:4 13:4 14:0 15:4 16:12 17:4 18:8 19:0 20:4 21:12 22:4 23:4 24:4 25:8 26:0 27:0 28:4 29:4 30:12 31:0 32:8 33:8 34:0 35:4 36:8 37:12 38:0 39:4 40:4 41:7.4200001 42:1.02 43:5.3699999 44:8.1800003 45:4.8600001 46:6.6500001 47:2.8099999 48:4.3499999 49:9.46 50:8.9499998 51:2.3 52:3.0699999 53:3.3199999 54:2.05 55:6.3899999 56:5.8800001 57:4.8600001 58:9.9700003 59:0.76999998 60:2.3 #
0.0023593722604029745623654967801031 1:4 2:0 3:4 4:16 5:0 6:4 7:0 8:4 9:4 10:4 11:4 12:4 13:16 14:0 15:0 16:16 17:12 18:8 19:0 20:0 21:12 22:0 23:8 24:12 25:0 26:4 27:0 28:4 29:8 30:0 31:4 32:0 33:12 34:0 35:0 36:32 37:4 38:0 39:0 40:0 41:6.5799999 42:1.5700001 43:5.96 44:8.1499996 45:5.3299999 46:3.76 47:3.1300001 48:4.3899999 49:6.5799999 50:6.9000001 51:2.1900001 52:3.1300001 53:6.27 54:4.3899999 55:7.8400002 56:7.52 57:5.96 58:5.96 59:1.25 60:3.1300001 #
0.0023593722604029745623654967801031 1:4 2:0 3:4 4:12 5:4 6:0 7:0 8:0 9:8 10:4 11:12 12:0 13:8 14:4 15:12 16:4 17:8 18:8 19:8 20:0 21:4 22:0 23:8 24:16 25:4 26:4 27:0 28:0 29:0 30:8 31:4 32:8 33:8 34:0 35:12 36:4 37:8 38:8 39:4 40:0 41:6.2800002 42:1.97 43:5.0300002 44:9.1599998 45:5.21 46:5.0300002 47:2.8699999 48:4.8499999 49:4.3099999 50:13.11 51:1.4400001 52:4.1300001 53:2.8699999 54:4.1300001 55:7.9000001 56:5.5700002 57:4.3099999 58:7.54 59:1.08 60:3.23 #
0.0023593722604029745623654967801031 1:8 2:0 3:8 4:8 5:8 6:8 7:4 8:4 9:4 10:8 11:4 12:4 13:4 14:8 15:4 16:12 17:0 18:4 19:0 20:0 21:4 22:4 23:0 24:0 25:8 26:8 27:0 28:16 29:4 30:20 31:4 32:0 33:0 34:0 35:8 36:4 37:4 38:16 39:0 40:0 41:7.98 42:0.47 43:2.8199999 44:10.8 45:1.88 46:3.76 47:2.3499999 48:6.5700002 49:4.23 50:10.33 51:0 52:10.33 53:0.47 54:9.8599997 55:6.5700002 56:8.9200001 57:5.6300001 58:5.1599998 59:0 60:1.88 #
-0.00033705318005756778687934116511826 1:0 2:0 3:4 4:16 5:0 6:0 7:0 8:0 9:12 10:20 11:4 12:4 13:0 14:4 15:8 16:8 17:8 18:8 19:0 20:4 21:8 22:0 23:4 24:4 25:8 26:0 27:0 28:8 29:16 30:12 31:0 32:4 33:0 34:4 35:12 36:4 37:8 38:0 39:0 40:8 41:2.8199999 42:1.79 43:8.21 44:7.1799998 45:3.5899999 46:4.3600001 47:2.5599999 48:5.9000001 49:5.1300001 50:7.9499998 51:3.3299999 52:7.4400001 53:2.05 54:4.3600001 55:5.9000001 56:11.28 57:6.6700001 58:5.1300001 59:0.50999999 60:3.8499999 #
-0.00033705318005756778687934116511826 1:8 2:0 3:8 4:4 5:0 6:4 7:0 8:12 9:0 10:8 11:4 12:0 13:12 14:0 15:0 16:28 17:8 18:0 19:4 20:0 21:4 22:0 23:20 24:24 25:4 26:8 27:4 28:4 29:0 30:0 31:0 32:4 33:4 34:4 35:0 36:4 37:0 38:12 39:0 40:4 41:7.79 42:0.56999999 43:8.75 44:5.3200002 45:3.23 46:9.1300001 47:0.56999999 48:3.23 49:6.8400002 50:6.6500001 51:2.28 52:6.0799999 53:3.4200001 54:4.1799998 55:7.79 56:7.0300002 57:4.75 58:7.2199998 59:1.52 60:3.6099999 #
-0.00033705318005756778687934116511826 1:8 2:0 3:4 4:0 5:4 6:8 7:0 8:8 9:4 10:0 11:4 12:12 13:0 14:0 15:12 16:12 17:8 18:16 19:0 20:0 21:8 22:0 23:4 24:36 25:0 26:0 27:0 28:4 29:4 30:0 31:4 32:4 33:20 34:4 35:0 36:0 37:4 38:8 39:0 40:0 41:10 42:0.60000002 43:5.52 44:10.9 45:3.8800001 46:4.3299999 47:0.89999998 48:6.7199998 49:8.0600004 50:8.21 51:1.34 52:4.1799998 53:4.6300001 54:2.3900001 55:5.2199998 56:6.7199998 57:5.0700002 58:7.6100001 59:0.44999999 60:3.28 #
-0.00033705318005756778687934116511826 1:12 2:4 3:0 4:0 5:12 6:8 7:0 8:12 9:4 10:12 11:4 12:0 13:8 14:0 15:4 16:4 17:0 18:8 19:0 20:8 21:12 22:8 23:8 24:16 25:8 26:4 27:4 28:8 29:4 30:8 31:4 32:4 33:0 34:8 35:0 36:0 37:4 38:0 39:0 40:0 41:7.6300001 42:8.3999996 43:5.3400002 44:2.29 45:3.8199999 46:9.9200001 47:1.53 48:3.8199999 49:2.29 50:6.1100001 51:3.8199999 52:3.8199999 53:5.3400002 54:3.05 55:2.29 56:11.45 57:8.3999996 58:4.5799999 59:1.53 60:4.5799999 #
-0.00033705318005756778687934116511826 1:16 2:4 3:0 4:0 5:0 6:8 7:0 8:0 9:0 10:28 11:4 12:0 13:12 14:0 15:4 16:12 17:4 18:8 19:0 20:0 21:0 22:8 23:8 24:20 25:4 26:12 27:0 28:0 29:4 30:8 31:0 32:4 33:4 34:0 35:8 36:8 37:0 38:4 39:0 40:8 41:5.6300001 42:4.3000002 43:3.3099999 44:7.6199999 45:4.3000002 46:10.26 47:1.3200001 48:4.9699998 49:5.6300001 50:5.96 51:2.98 52:4.3000002 53:4.6399999 54:4.3000002 55:5.3000002 56:4.9699998 57:7.9499998 58:6.29 59:1.66 60:4.3000002 #
-0.00033705318005756778687934116511826 1:0 2:12 3:4 4:0 5:4 6:8 7:4 8:4 9:0 10:16 11:4 12:8 13:8 14:8 15:8 16:8 17:0 18:4 19:0 20:0 21:4 22:4 23:4 24:32 25:4 26:0 27:0 28:4 29:4 30:16 31:0 32:0 33:4 34:4 35:4 36:8 37:4 38:4 39:0 40:0 41:5.7800002 42:1.52 43:7.29 44:5.4699998 45:3.3399999 46:7.29 47:2.1300001 48:6.3800001 49:7.9000001 50:8.8100004 51:3.04 52:2.74 53:4.2600002 54:3.04 55:5.4699998 56:8.21 57:6.0799999 58:6.0799999 59:1.22 60:3.95 #
-0.00033705318005756778687934116511826 1:8 2:0 3:8 4:0 5:0 6:8 7:0 8:20 9:4 10:8 11:4 12:0 13:0 14:4 15:8 16:12 17:4 18:12 19:0 20:0 21:4 22:0 23:20 24:0 25:8 26:8 27:0 28:12 29:12 30:0 31:4 32:0 33:0 34:12 35:4 36:0 37:0 38:16 39:0 40:0 41:4.73 42:0.68000001 43:6.7600002 44:7.4299998 45:3.3800001 46:6.0799999 47:2.7 48:4.0500002 49:6.7600002 50:11.49 51:2.03 52:2.03 53:4.73 54:6.0799999 55:5.4099998 56:8.1099997 57:4.73 58:5.4099998 59:0 60:7.4299998 #
-0.00033705318005756778687934116511826 1:16 2:4 3:4 4:4 5:8 6:8 7:0 8:8 9:0 10:16 11:4 12:4 13:8 14:4 15:0 16:4 17:0 18:4 19:4 20:0 21:24 22:8 23:0 24:0 25:0 26:8 27:0 28:4 29:8 30:0 31:0 32:4 33:0 34:4 35:12 36:8 37:8 38:8 39:4 40:0 41:8.2200003 42:0.91000003 43:7.0799999 44:6.3899999 45:5.02 46:4.79 47:3.8800001 48:4.5700002 49:5.48 50:12.56 51:1.37 52:5.02 53:3.4200001 54:2.28 55:6.3899999 56:6.8499999 57:5.25 58:5.25 59:2.05 60:3.2 #
-0.00033705318005756778687934116511826 1:8 2:0 3:8 4:8 5:0 6:12 7:0 8:16 9:4 10:4 11:8 12:0 13:0 14:0 15:0 16:8 17:12 18:8 19:0 20:4 21:4 22:0 23:0 24:12 25:8 26:8 27:4 28:4 29:0 30:0 31:8 32:4 33:12 34:0 35:12 36:8 37:4 38:0 39:4 40:8 41:5.02 42:1.67 43:5.7600002 44:12.08 45:2.4200001 46:4.8299999 47:2.79 48:4.46 49:12.64 50:9.1099997 51:1.86 52:3.1600001 53:2.97 54:5.02 55:5.5799999 56:8.7399998 57:4.46 58:5.02 59:0.56 60:1.86 #
-0.00033705318005756778687934116511826 1:12 2:4 3:4 4:4 5:4 6:4 7:4 8:0 9:0 10:28 11:4 12:4 13:4 14:4 15:8 16:4 17:0 18:4 19:4 20:0 21:0 22:0 23:4 24:4 25:0 26:4 27:4 28:4 29:4 30:24 31:8 32:8 33:4 34:8 35:0 36:8 37:12 38:4 39:0 40:0 41:7.9200001 42:3.1700001 43:7.3899999 44:4.4899998 45:3.96 46:8.1800003 47:1.58 48:5.54 49:4.2199998 50:9.2299995 51:3.4300001 52:4.75 53:5.0100002 54:5.2800002 55:5.2800002 56:5.54 57:2.9000001 58:3.96 59:4.2199998 60:3.96 #
-0.00023526156982004017489962244269464 1:8 2:4 3:0 4:4 5:0 6:4 7:4 8:4 9:4 10:4 11:12 12:4 13:12 14:0 15:8 16:8 17:8 18:12 19:0 20:0 21:20 22:0 23:16 24:0 25:8 26:4 27:0 28:4 29:4 30:8 31:0 32:8 33:4 34:0 35:0 36:0 37:0 38:20 39:0 40:4 41:7.3899999 42:0.80000001 43:6.3899999 44:9.7799997 45:5.3899999 46:4.3899999 47:2.2 48:5.3899999 49:7.1900001 50:10.18 51:2.4000001 52:3.3900001 53:2.2 54:4.1900001 55:5.5900002 56:5.79 57:5.9899998 58:4.5900002 59:2 60:4.79 #
-0.00033705318005756778687934116511826 1:24 2:4 3:0 4:4 5:0 6:4 7:4 8:0 9:0 10:28 11:4 12:0 13:4 14:0 15:12 16:8 17:0 18:0 19:4 20:0 21:0 22:0 23:16 24:12 25:4 26:0 27:4 28:0 29:0 30:24 31:0 32:4 33:8 34:0 35:0 36:16 37:0 38:8 39:0 40:4 41:9.3299999 42:0 43:6 44:5.3299999 45:4.6700001 46:4 47:3.3299999 48:4 49:7.3299999 50:10.67 51:0.67000002 52:4.6700001 53:5.3299999 54:2.6700001 55:10 56:10.67 57:2.6700001 58:5.3299999 59:0 60:3.3299999 #
-0.00033705318005756778687934116511826 1:16 2:0 3:0 4:4 5:4 6:8 7:4 8:0 9:0 10:20 11:4 12:0 13:4 14:0 15:12 16:12 17:8 18:0 19:0 20:4 21:4 22:0 23:0 24:12 25:0 26:20 27:4 28:0 29:8 30:12 31:0 32:0 33:12 34:4 35:4 36:8 37:0 38:8 39:4 40:0 41:12.7 42:3.1700001 43:1.59 44:6.3499999 45:4.7600002 46:4.7600002 47:9.5200005 48:1.59 49:6.3499999 50:11.11 51:0 52:0 53:1.59 54:4.7600002 55:12.7 56:3.1700001 57:4.7600002 58:4.7600002 59:0 60:6.3499999 #
-0.00033705318005756778687934116511826 1:16 2:4 3:0 4:0 5:0 6:4 7:0 8:0 9:0 10:24 11:4 12:0 13:20 14:4 15:8 16:4 17:0 18:8 19:4 20:0 21:0 22:0 23:4 24:0 25:0 26:12 27:16 28:4 29:0 30:24 31:4 32:4 33:4 34:4 35:0 36:0 37:16 38:8 39:0 40:0 41:13.32 42:0.85000002 43:4.4400001 44:5.9200001 45:1.9 46:9.3000002 47:2.75 48:3.5899999 49:3.3800001 50:15.01 51:2.1099999 52:1.9 53:5.0700002 54:6.1300001 55:5.29 56:6.1300001 57:4.23 58:7.1900001 59:0.20999999 60:1.27 #
-0.00033705318005756778687934116511826 1:24 2:0 3:0 4:8 5:4 6:12 7:0 8:0 9:0 10:8 11:4 12:0 13:0 14:0 15:16 16:0 17:0 18:12 19:12 20:0 21:0 22:0 23:12 24:16 25:0 26:12 27:0 28:0 29:8 30:16 31:4 32:0 33:4 34:4 35:8 36:0 37:8 38:4 39:4 40:0 41:7.4499998 42:2.01 43:5.1599998 44:4.0100002 45:6.02 46:9.7399998 47:2.29 48:3.4400001 49:2.5799999 50:10.89 51:0.86000001 52:1.72 53:9.46 54:3.1500001 55:8.6000004 56:8.0200005 57:2.8699999 58:9.46 59:0.28999999 60:2.01 #
-0.00033705318005756778687934116511826 1:8 2:8 3:0 4:4 5:0 6:0 7:0 8:4 9:0 10:32 11:12 12:4 13:8 14:0 15:4 16:4 17:8 18:4 19:0 20:0 21:0 22:8 23:4 24:8 25:4 26:8 27:4 28:4 29:4 30:12 31:4 32:8 33:16 34:0 35:0 36:4 37:0 38:8 39:4 40:0 41:5.3400002 42:1.9400001 43:4.8499999 44:7.2800002 45:4.8499999 46:7.77 47:3.4000001 48:8.25 49:4.8499999 50:4.8499999 51:0 52:5.3400002 53:6.3099999 54:5.3400002 55:3.8800001 56:6.3099999 57:9.71 58:5.8299999 59:1.9400001 60:1.9400001 #
-0.00033705318005756778687934116511826 1:16 2:12 3:0 4:0 5:16 6:0 7:4 8:4 9:0 10:4 11:4 12:4 13:0 14:0 15:0 16:12 17:12 18:8 19:4 20:0 21:0 22:0 23:8 24:4 25:4 26:4 27:4 28:4 29:16 30:4 31:0 32:4 33:4 34:4 35:4 36:8 37:12 38:8 39:8 40:0 41:9.0500002 42:0.63 43:8.6300001 44:5.8899999 45:5.4699998 46:3.79 47:2.1099999 48:5.4699998 49:5.6799998 50:12 51:1.6799999 52:4.8400002 53:4.4200001 54:3.1600001 55:4.6300001 56:5.2600002 57:4.21 58:6.5300002 59:1.26 60:5.2600002 #
-0.00033705318005756778687934116511826 1:4 2:0 3:4 4:4 5:8 6:4 7:0 8:8 9:4 10:0 11:4 12:8 13:12 14:4 15:4 16:12 17:4 18:12 19:0 20:4 21:0 22:0 23:0 24:20 25:0 26:8 27:4 28:8 29:12 30:8 31:0 32:8 33:4 34:0 35:4 36:8 37:4 38:4 39:0 40:8 41:8.3500004 42:0.30000001 43:5.8099999 44:9.6899996 45:3.28 46:4.1700001 47:2.0899999 48:5.3699999 49:5.96 50:11.18 51:1.79 52:4.02 53:3.28 54:5.96 55:7.75 56:8.0500002 57:4.02 58:5.3699999 59:1.1900001 60:2.3800001 #
-0.00033705318005756778687934116511826 1:12 2:8 3:4 4:4 5:12 6:12 7:0 8:4 9:0 10:8 11:4 12:12 13:4 14:0 15:0 16:4 17:0 18:12 19:0 20:0 21:0 22:0 23:4 24:12 25:4 26:24 27:0 28:4 29:8 30:4 31:0 32:8 33:0 34:0 35:4 36:4 37:4 38:12 39:4 40:4 41:12.13 42:0.83999997 43:8.79 44:8.3699999 45:2.51 46:4.5999999 47:1.67 48:6.6900001 49:7.5300002 50:9.21 51:0.83999997 52:2.0899999 53:2.0899999 54:5.02 55:7.9499998 56:5.8600001 57:3.77 58:7.5300002 59:0.83999997 60:1.67 #
-0.00033705318005756778687934116511826 1:0 2:0 3:4 4:12 5:12 6:8 7:0 8:0 9:0 10:8 11:4 12:0 13:4 14:4 15:12 16:12 17:8 18:8 19:0 20:4 21:16 22:0 23:4 24:32 25:0 26:0 27:0 28:4 29:12 30:8 31:4 32:0 33:4 34:0 35:0 36:8 37:4 38:4 39:0 40:0 41:10.48 42:1.4299999 43:5.71 44:10.48 45:2.3800001 46:8.1000004 47:2.8599999 48:6.6700001 49:5.71 50:11.43 51:1.9 52:3.3299999 53:1.4299999 54:2.8599999 55:3.8099999 56:8.1000004 57:4.7600002 58:4.7600002 59:0.47999999 60:3.3299999 #
0.0023593722604024610842166076452031 1:4 2:4 3:4 4:4 5:8 6:8 7:0 8:4 9:0 10:24 11:4 12:0 13:4 14:0 15:8 16:12 17:8 18:4 19:0 20:0 21:8 22:0 23:8 24:16 25:4 26:8 27:4 28:0 29:12 30:12 31:4 32:0 33:0 34:8 35:8 36:0 37:4 38:4 39:0 40:0 41:5.7399998 42:1.64 43:5.7399998 44:10.66 45:4.9200001 46:9.8400002 47:4.9200001 48:6.5599999 49:8.1999998 50:7.3800001 51:1.64 52:4.9200001 53:6.5599999 54:0.81999999 55:1.64 56:7.3800001 57:1.64 58:4.9200001 59:1.64 60:3.28 #
-0.00033705318005756778687934116511826 1:8 2:0 3:0 4:0 5:0 6:8 7:0 8:0 9:0 10:44 11:4 12:0 13:12 14:0 15:0 16:16 17:4 18:0 19:4 20:0 21:8 22:0 23:4 24:4 25:0 26:12 27:8 28:4 29:0 30:16 31:0 32:0 33:8 34:4 35:4 36:16 37:4 38:8 39:0 40:0 41:5.9699998 42:2.8399999 43:4.8299999 44:6.8200002 45:5.6799998 46:6.5300002 47:1.7 48:3.6900001 49:3.98 50:13.35 51:2.5599999 52:1.99 53:5.6799998 54:7.0999999 55:6.25 56:7.9499998 57:3.4100001 58:3.98 59:2.27 60:3.4100001 #
-0.00033705318005756778687934116511826 1:40 2:0 3:0 4:0 5:0 6:8 7:4 8:4 9:0 10:16 11:4 12:0 13:4 14:0 15:8 16:4 17:0 18:4 19:4 20:0 21:0 22:4 23:8 24:4 25:0 26:12 27:12 28:0 29:0 30:4 31:0 32:4 33:16 34:0 35:24 36:0 37:0 38:8 39:0 40:4 41:5.7600002 42:0.72000003 43:3.5999999 44:3.5999999 45:5.4000001 46:7.9099998 47:2.52 48:3.5999999 49:1.8 50:14.75 51:0.36000001 52:6.1199999 53:8.2700005 54:4.6799998 55:6.8299999 56:10.43 57:3.96 58:5.04 59:1.8 60:2.8800001 #
-0.00033705318005756778687934116511826 1:24 2:4 3:0 4:0 5:0 6:8 7:8 8:4 9:0 10:32 11:4 12:0 13:4 14:0 15:4 16:4 17:4 18:0 19:0 20:0 21:8 22:0 23:4 24:4 25:0 26:0 27:0 28:8 29:4 30:0 31:12 32:8 33:8 34:0 35:4 36:8 37:16 38:4 39:0 40:12 41:8.6499996 42:0.63999999 43:6.0900002 44:5.1300001 45:4.4899998 46:7.0500002 47:1.92 48:5.77 49:2.8800001 50:9.6199999 51:0.95999998 52:3.53 53:7.0500002 54:4.1700001 55:4.8099999 56:5.4499998 57:6.4099998 58:8.0100002 59:3.8499999 60:3.53 #
-0.00033705318005756778687934116511826 1:28 2:4 3:0 4:0 5:4 6:4 7:4 8:0 9:0 10:24 11:4 12:0 13:0 14:8 15:8 16:0 17:4 18:8 19:0 20:0 21:16 22:0 23:8 24:4 25:4 26:0 27:4 28:0 29:4 30:12 31:0 32:4 33:12 34:4 35:0 36:8 37:0 38:16 39:4 40:0 41:10.35 42:1.17 43:6.1799998 44:3.8399999 45:3.6700001 46:6.1799998 47:2.8399999 48:4.0100002 49:4.0100002 50:7.6799998 51:0.17 52:6.1799998 53:6.8400002 54:4.0100002 55:5.5100002 56:5.6799998 57:6.6799998 58:6.8400002 59:2.1700001 60:6.0100002 #
-0.00033705318005756778687934116511826 1:12 2:8 3:0 4:0 5:4 6:4 7:0 8:4 9:0 10:32 11:4 12:0 13:4 14:4 15:0 16:20 17:0 18:0 19:4 20:0 21:4 22:0 23:16 24:8 25:4 26:4 27:0 28:0 29:12 30:8 31:0 32:0 33:24 34:4 35:0 36:12 37:0 38:0 39:0 40:4 41:7.4699998 42:0.68000001 43:5.6599998 44:5.4299998 45:5.4299998 46:4.98 47:2.49 48:2.49 49:4.52 50:15.61 51:2.9400001 52:3.1700001 53:7.4699998 54:7.9200001 55:4.52 56:7.9200001 57:4.75 58:4.75 59:1.13 60:0.68000001 #
-0.00033705318005756778687934116511826 1:12 2:0 3:8 4:8 5:4 6:0 7:4 8:4 9:0 10:8 11:4 12:0 13:24 14:0 15:0 16:12 17:4 18:4 19:0 20:4 21:12 22:0 23:4 24:4 25:8 26:8 27:0 28:8 29:8 30:12 31:0 32:4 33:4 34:0 35:4 36:4 37:4 38:4 39:4 40:8 41:4.5700002 42:1.63 43:3.75 44:9.46 45:5.8699999 46:4.8899999 47:2.28 48:8.6499996 49:7.8299999 50:8.4799995 51:2.45 52:4.0799999 53:3.0999999 54:3.75 55:3.9200001 56:9.9499998 57:5.5500002 58:5.3800001 59:0.33000001 60:4.0799999 #
-0.00033705318005756778687934116511826 1:12 2:0 3:0 4:16 5:4 6:4 7:0 8:8 9:4 10:8 11:4 12:4 13:4 14:8 15:0 16:0 17:16 18:4 19:4 20:0 21:40 22:0 23:0 24:8 25:0 26:4 27:0 28:0 29:4 30:4 31:0 32:4 33:24 34:0 35:0 36:8 37:4 38:0 39:0 40:0 41:2.53 42:3.8 43:3.8 44:6.3299999 45:8.8599997 46:5.0599999 47:0 48:3.8 49:13.92 50:8.8599997 51:0 52:2.53 53:5.0599999 54:5.0599999 55:3.8 56:8.8599997 57:1.27 58:11.39 59:1.27 60:3.8 #
-0.00033705318005756778687934116511826 1:8 2:0 3:4 4:0 5:8 6:12 7:0 8:0 9:0 10:12 11:4 12:4 13:4 14:4 15:8 16:20 17:12 18:0 19:0 20:0 21:4 22:0 23:4 24:8 25:8 26:12 27:0 28:12 29:4 30:16 31:0 32:0 33:0 34:4 35:4 36:12 37:0 38:12 39:0 40:0 41:5.9499998 42:1.6 43:5.7199998 44:4.3499999 45:3.4300001 46:7.7800002 47:3.4300001 48:5.7199998 49:3.2 50:11.67 51:1.6 52:2.52 53:7.3200002 54:4.5799999 55:5.4899998 56:8.6999998 57:4.1199999 58:8.2399998 59:1.37 60:3.2 #
-0.00033705318005756778687934116511826 1:8 2:0 3:16 4:16 5:12 6:0 7:0 8:4 9:0 10:8 11:4 12:0 13:4 14:0 15:0 16:12 17:8 18:8 19:0 20:0 21:8 22:4 23:4 24:16 25:8 26:0 27:0 28:0 29:0 30:12 31:4 32:4 33:0 34:8 35:4 36:12 37:4 38:4 39:4 40:4 41:7.0300002 42:3.23 43:4.5 44:5.77 45:3.6600001 46:4.7800002 47:2.6700001 48:3.6600001 49:6.1900001 50:11.11 51:1.41 52:4.7800002 53:4.0799999 54:7.5900002 55:5.6300001 56:8.5799999 57:3.9400001 58:6.1900001 59:1.55 60:3.6600001 #
-0.00033705318005756778687934116511826 1:24 2:0 3:0 4:4 5:4 6:0 7:0 8:8 9:8 10:16 11:4 12:8 13:0 14:0 15:0 16:0 17:20 18:4 19:0 20:0 21:0 22:0 23:4 24:0 25:4 26:12 27:4 28:4 29:4 30:12 31:0 32:12 33:8 34:0 35:4 36:8 37:4 38:16 39:0 40:4 41:8.6000004 42:1.8099999 43:4.52 44:5.4299998 45:3.1700001 46:4.52 47:1.8099999 48:2.71 49:3.6199999 50:5.8800001 51:1.8099999 52:4.0700002 53:4.52 54:4.0700002 55:1.36 56:14.48 57:14.93 58:6.79 59:2.26 60:3.6199999 #
0.0018614086467493851095866830291925 1:0 2:4 3:0 4:8 5:0 6:28 7:0 8:0 9:0 10:24 11:4 12:0 13:8 14:0 15:4 16:4 17:0 18:16 19:0 20:0 21:4 22:4 23:8 24:8 25:0 26:8 27:0 28:8 29:4 30:20 31:0 32:8 33:8 34:0 35:0 36:8 37:4 38:8 39:0 40:0 41:3 42:3 43:3.9300001 44:10.16 45:3 46:6.2399998 47:4.1599998 48:5.3099999 49:7.8499999 50:7.1599998 51:1.62 52:3.46 53:6 54:4.3899999 55:4.3899999 56:6.9299998 57:6.6999998 58:6 59:1.39 60:5.3099999 #
-0.00033705318005756778687934116511826 1:0 2:0 3:0 4:0 5:0 6:4 7:0 8:0 9:0 10:44 11:4 12:0 13:20 14:0 15:8 16:8 17:4 18:4 19:4 20:0 21:0 22:8 23:0 24:4 25:0 26:4 27:0 28:8 29:12 30:4 31:4 32:4 33:4 34:4 35:8 36:12 37:0 38:16 39:0 40:8 41:6.7600002 42:2.9400001 43:3.8199999 44:7.3499999 45:2.9400001 46:5 47:2.9400001 48:3.53 49:4.71 50:11.76 51:1.47 52:4.4099998 53:7.0599999 54:3.8199999 55:7.3499999 56:7.9400001 57:5 58:5.29 59:1.76 60:4.1199999 #
-0.00033705318005756778687934116511826 1:8 2:0 3:4 4:24 5:0 6:0 7:4 8:4 9:0 10:12 11:4 12:0 13:0 14:8 15:8 16:8 17:4 18:8 19:0 20:4 21:4 22:0 23:12 24:16 25:0 26:8 27:0 28:0 29:8 30:12 31:8 32:12 33:0 34:4 35:0 36:4 37:0 38:8 39:0 40:4 41:5.8800001 42:1.36 43:6.3299999 44:10.18 45:4.75 46:4.0700002 47:2.9400001 48:5.1999998 49:9.0500002 50:8.8199997 51:1.13 52:4.3000002 53:4.3000002 54:4.98 55:4.98 56:7.0100002 57:4.75 58:4.0700002 59:1.36 60:4.52 #
-0.00033705318005756778687934116511826 1:20 2:0 3:4 4:4 5:4 6:0 7:0 8:4 9:0 10:16 11:4 12:0 13:4 14:0 15:8 16:4 17:0 18:24 19:4 20:0 21:4 22:12 23:8 24:16 25:0 26:4 27:0 28:12 29:12 30:8 31:0 32:4 33:0 34:8 35:4 36:4 37:0 38:4 39:0 40:0 41:2.78 42:8.3299999 43:8.3299999 44:8.3299999 45:2.78 46:5.5599999 47:2.78 48:5.5599999 49:2.78 50:0 51:5.5599999 52:0 53:8.3299999 54:2.78 55:5.5599999 56:8.3299999 57:8.3299999 58:8.3299999 59:0 60:5.5599999 #
-0.00033705318005756778687934116511826 1:16 2:4 3:8 4:8 5:4 6:4 7:0 8:0 9:0 10:12 11:4 12:0 13:4 14:12 15:8 16:4 17:0 18:8 19:4 20:0 21:0 22:8 23:0 24:8 25:4 26:4 27:4 28:8 29:4 30:24 31:4 32:8 33:0 34:4 35:4 36:0 37:8 38:8 39:0 40:0 41:5.6100001 42:2.27 43:4.6999998 44:7.4200001 45:4.5500002 46:4.5500002 47:2.5799999 48:5.4499998 49:6.3600001 50:11.82 51:3.1800001 52:4.8499999 53:3.3299999 54:5.9099998 55:6.0599999 56:5.6100001 57:5 58:5.7600002 59:1.36 60:3.6400001 #
-0.00033705318005756778687934116511826 1:4 2:4 3:0 4:0 5:4 6:8 7:0 8:4 9:4 10:40 11:8 12:0 13:8 14:4 15:0 16:12 17:0 18:0 19:0 20:0 21:4 22:12 23:0 24:4 25:4 26:4 27:8 28:8 29:0 30:4 31:4 32:8 33:8 34:0 35:0 36:12 37:12 38:8 39:0 40:0 41:3.9200001 42:11.76 43:5.8800001 44:5.8800001 45:1.96 46:9.8000002 47:0 48:5.8800001 49:1.96 50:3.9200001 51:0 52:1.96 53:1.96 54:3.9200001 55:9.8000002 56:5.8800001 57:9.8000002 58:9.8000002 59:1.96 60:3.9200001 #
-0.00033705318005756778687934116511826 1:4 2:0 3:12 4:4 5:4 6:12 7:0 8:0 9:4 10:4 11:8 12:8 13:0 14:4 15:4 16:16 17:0 18:12 19:0 20:4 21:8 22:0 23:20 24:24 25:0 26:8 27:0 28:4 29:4 30:12 31:0 32:0 33:0 34:4 35:0 36:8 37:0 38:8 39:0 40:0 41:7.1799998 42:1.62 43:5.4400001 44:9.6099997 45:3.01 46:4.75 47:1.27 48:6.25 49:6.3699999 50:12.62 51:2.8900001 52:3.9400001 53:3.3599999 54:4.8600001 55:5.0900002 56:8.2200003 57:4.98 58:6.48 59:0.23 60:1.85 #
-0.00033705318005756778687934116511826 1:8 2:0 3:8 4:12 5:0 6:16 7:0 8:0 9:12 10:8 11:12 12:0 13:4 14:0 15:4 16:8 17:0 18:8 19:0 20:0 21:12 22:4 23:4 24:24 25:0 26:4 27:0 28:4 29:24 30:16 31:0 32:0 33:0 34:0 35:0 36:0 37:0 38:8 39:0 40:0 41:6.3600001 42:0.99000001 43:6.1599998 44:14.12 45:2.1900001 46:4.1700001 47:0.99000001 48:8.1499996 49:12.92 50:4.9699998 51:0.80000001 52:1.59 53:12.92 54:5.1700001 55:0.99000001 56:10.34 57:3.3800001 58:3.3800001 59:0.2 60:0.2 #
-0.00033705318005756778687934116511826 1:8 2:0 3:0 4:8 5:4 6:8 7:0 8:0 9:8 10:8 11:4 12:0 13:0 14:0 15:8 16:16 17:4 18:8 19:4 20:12 21:16 22:0 23:0 24:20 25:4 26:0 27:0 28:8 29:8 30:12 31:0 32:0 33:4 34:8 35:0 36:12 37:8 38:0 39:0 40:0 41:8.2399998 42:1.12 43:5.2399998 44:5.6199999 45:4.4899998 46:8.6099997 47:4.1199999 48:4.8699999 49:4.8699999 50:8.9899998 51:2.25 52:4.4899998 53:5.2399998 54:5.6199999 55:5.9899998 56:4.8699999 57:5.6199999 58:7.4899998 59:1.5 60:0.75 #
-0.00033705318005756778687934116511826 1:0 2:8 3:0 4:8 5:0 6:12 7:0 8:4 9:12 10:20 11:4 12:0 13:12 14:0 15:0 16:16 17:0 18:4 19:0 20:0 21:4 22:0 23:8 24:4 25:8 26:4 27:0 28:4 29:20 30:12 31:8 32:4 33:4 34:4 35:8 36:4 37:0 38:0 39:4 40:0 41:4.9299998 42:3.8199999 43:4.9299998 44:6.04 45:3.3299999 46:6.7800002 47:4.4400001 48:4.0700002 49:5.5500002 50:7.27 51:1.6 52:2.96 53:9.25 54:3.8199999 55:7.6399999 56:10.11 57:4.9299998 58:3.8199999 59:0.62 60:4.0700002 #
